svm_type c_svc
kernel_type linear
nr_class 2
total_sv 100
rho 0.547645
label 0 1
nr_sv 46 54
SV
0.009956306801177799 1:0.3213467 2:0.18892039 3:0.16176896 4:0.025097612 5:0.011198324 6:0.00040014449 7:0 8:0 9:0.3213467 10:0.3213467 11:0.17926532 12:0.11176797 13:0 14:9.3481387e-005 15:0 16:0 17:0 18:0.3213467 19:0.3213467 20:0.042830754 21:0.013028505 22:0.0098017054 23:0.0053125401 24:0.00018188385 25:0 26:0 27:0.3213467 28:0.3213467 29:0.23254438 30:0.085033491 31:0 32:6.6420325e-005 33:0 34:0 35:0 36:0.3213467 37:0.31520942 38:0.22205393 39:0.10864298 40:0 41:0.00061101647 42:0 43:0.00012105751 44:4.0455376e-005 45:0.31520942 46:0.31520942 47:0.15654773 48:0.076692238 49:0 50:0.01718555 51:0 52:0.00075326982 53:0.00025172991 54:0.31520942 55:0.31520942 56:0.26563987 57:0.11197865 58:0 59:0.00020159484 60:0 61:6.6412049e-006 62:2.2193797e-006 63:0.31520942 64:0.31520942 65:0.14982232 66:0.068172015 67:0 68:0.00055102678 69:0 70:2.8778553e-005 71:9.6173117e-006 72:0.31520942 73:0.3006795 74:0.01543377 75:0.010890093 76:0 77:0.025652749 78:0 79:0.055410486 80:0.075488567 81:0.3006795 82:0.19604978 83:0 84:0 85:1.7774932e-005 86:0.024899425 87:0.0050033699 88:0.1526649 89:0.24524799 90:0.3006795 91:0.3006795 92:0.0145049 93:0.0099633606 94:0 95:0.001014188 96:0 97:0.073636718 98:0.10164331 99:0.3006795 100:0.26859078 101:0 102:0 103:0.00026662395 104:0.22729841 105:0.03927872 106:0.3006795 107:0.3006795 108:0.3006795 109:0.11299497 110:2.3539407e-005 111:7.0438888e-005 112:0.00014016374 113:0.10342671 114:0.024478456 115:0.12770554 116:0.22698499 117:0.32529727 118:0.16694613 119:3.9069313e-005 120:0.00011691028 121:0.00010901623 122:0.065692365 123:0.011577102 124:0.053913891 125:0.10854155 126:0.19539462 127:0.20746568 128:0.00035309108 129:0.0010565832 130:0.0021024558 131:0.32529727 132:0.2261775 133:0.32529727 134:0.32529727 135:0.32529727 136:0.037384141 137:0.00058603974 138:0.0017536543 139:0.0016352435 140:0.32529727 141:0.13542357 142:0.12697089 143:0.15079302 144:0.17874517 145:0.37688217 146:1.4239952e-005 147:4.2611369e-005 148:0 149:0.014629251 150:0 151:0.15778314 152:0.33979645 153:0.37688217 154:0.37688217 155:0 156:0 157:0 158:0.0060408758 159:0 160:0.37688217 161:0.37688217 162:0.37688217 163:0.0051818104 164:0.0002135993 165:0.00063917058 166:0 167:0.050700832 168:0.013280756 169:0.0048969802 170:0.0082235336 171:0.014373411 172:0.010495176 173:0 174:0 175:0 176:0.0026608189 177:0 178:0 179:0 180:0.014012286 181:0.29979032 182:0 183:0 184:0 185:0.00096998626 186:0 187:0.33175296 188:0.33175296 189:0.33175296 190:0.17533535 191:0 192:0 193:0 194:0.0011455517 195:0 196:0.33175296 197:0.33175296 198:0.33175296 199:0.0097559318 200:0 201:0 202:0 203:0.00066356151 204:0 205:0.032535266 206:0.037862644 207:0.016225021 208:0.068001024 209:0 210:0 211:0 212:8.7941211e-005 213:0 214:0.2980639 215:0.33175296 216:0.096586458 217:0.086709745 218:0 219:0 220:0 221:0.014288705 222:0.010882113 223:0.31418046 224:0.31418046 225:0.17131148 226:0.025657058 227:0 228:0 229:0 230:0.044958189 231:0.026489995 232:0.18643944 233:0.24030878 234:0.06652654 235:0.085672066 236:0 237:0 238:0 239:0.14638765 240:0.1228874 241:0.31418046 242:0.31418046 243:0.14561237 244:0.025257494 245:0 246:0 247:0 248:0.31418046 249:0.31418046 250:0.31418046 251:0.31418046 252:0.063013829 253:0.46320549 254:0.051420223 255:0.0089521669 256:0 257:0 258:0 259:0 260:0 261:0.46320549 262:0.46320549 263:0.34153104 264:0.13329773 265:0 266:0 267:0 268:0 269:0 270:0.46320549 271:0 272:0 273:0 274:0 275:0 276:0 277:0 278:0 279:0 280:0 281:0 282:0 283:0 284:0 285:0 286:0 287:0 288:0 289:0.40917459 290:0.40917459 291:0.27267489 292:0 293:0.00060482329 294:0 295:0 296:0 297:0.40917459 298:0.40917459 299:0.2629101 300:0.12375502 301:0 302:0.0020318707 303:0 304:0 305:0 306:0.40917459 307:0 308:0 309:0 310:0 311:0 312:0 313:0 314:0 315:0 316:0 317:0 318:0 319:0 320:0 321:0 322:0 323:0 324:0 325:0.2305136 326:0.01287616 327:0.0088445852 328:0 329:0.0033051602 330:0 331:0.069342837 332:0.096913397 333:0.26695478 334:0.39013058 335:0 336:0 337:0.0010607486 338:0.39192814 339:0.17216596 340:0.39192814 341:0.39192814 342:0.39192814 343:5.8813268e-005 344:0 345:0 346:0 347:0 348:0 349:0 350:0 351:5.8813268e-005 352:0.036164992 353:0 354:0 355:0 356:0.21764384 357:0.009566173 358:0.046883613 359:0.070380375 360:0.070944041 361:0.068615422 362:0.00012495318 363:0.00037390753 364:0.00074402487 365:0.34517509 366:0.20296541 367:0.21635941 368:0.23353668 369:0.22625858 370:0.023406349 371:0.00020738989 372:0.00062058965 373:0.00057868601 374:0.34517509 375:0.2309579 376:0.15979727 377:0.16030326 378:0.13338946 379:0.0155703 380:0 381:0 382:0 383:0.34517509 384:0.16518705 385:0.13448252 386:0.10089715 387:0.045850698 388:0.0074722078 389:0 390:0 391:0 392:0.34517509 393:0.27124575 394:0.22197236 395:0.1290319 396:0.034013275 397:0.007086298 398:0.00031252491 399:0.00093519368 400:0 401:0.53432399 402:0.27498382 403:0.14960742 404:0.089829557 405:0.043643292 406:0.00019789644 407:0 408:0 409:0 410:0 411:0 412:0 413:0 414:0.00019789644 415:0.0010873221 416:0 417:0 418:0 419:0.53432399 420:0.41188589 421:0.35096216 422:0.15073015 423:0.009523551 424:0 425:0 426:0 427:0 428:0 429:0 430:0 431:0 432:0 433:0.0037599562 434:0 435:0 436:0 437:0 438:0 439:0 440:0 441:0.0037599562 442:0.49827844 443:0 444:0 445:0 446:0 447:0 448:0.49827844 449:0.49827844 450:0.49827844 451:0.0049564075 452:0 453:0 454:0 455:0.0073979311 456:0 457:0 458:0 459:0.0049564075 460:0.021477766 461:0 462:0 463:0 464:0.029037161 465:0 466:0 467:0 468:0.021477766 469:0.011393209 470:0 471:0 472:0 473:0.13344753 474:0.11479468 475:0.1556666 476:0.11837006 477:0.016704228 478:0.0094042765 479:0 480:0 481:0 482:0.43447152 483:0.43447152 484:0.43447152 485:0.32134885 486:0.021088518 487:0.0012606616 488:0 489:0 490:0 491:0.05879325 492:0.011725552 493:0.019987233 494:0.0084854234 495:0.0024862813 496:0.0051828981 497:0 498:0 499:0 500:0.43447152 501:0.12197968 502:0.20531453 503:0.077238254 504:0.0078792609 505:0 506:0 507:0 508:0 509:0 510:0 511:0 512:0 513:0 514:0 515:0 516:0 517:0 518:0 519:0 520:0 521:0 522:0 523:0 524:0 525:0 526:0 527:0 528:0 529:0 530:0 531:0 532:0 533:0 534:0 535:0 536:0 537:0 538:0 539:0 540:0 541:0 542:0 543:0 544:0 545:0 546:0 547:0 548:0 549:0 550:0 551:0 552:0 553:0 554:0 555:0 556:0 557:0 558:0 559:0 560:0 561:0 562:0 563:0 564:0 565:0 566:0 567:0 568:0 569:0 570:0 571:0 572:0 573:0 574:0 575:0 576:0 577:0 578:0 579:0 580:0 581:0 582:0 583:0 584:0 585:0 586:0 587:0 588:0 589:0 590:0.48439631 591:0 592:0 593:0 594:0 595:0 596:0 597:0 598:0 599:0 600:0 601:0 602:0 603:0 604:0 605:0 606:0 607:0 608:0.8698737 609:0 610:0 611:0 612:0 613:7.3237534e-006 614:0.0014307685 615:0.012442408 616:0.015844889 617:0.43912253 618:0.031610787 619:0.030857507 620:0.015785186 621:7.3237534e-006 622:3.1736265e-005 623:0.0028005207 624:0.019494779 625:0.034498192 626:0.43912253 627:0.057413701 628:0.060153276 629:0.02598271 630:3.1736265e-005 631:0.0073669311 632:0.017411212 633:0.16444145 634:0.13047339 635:0.43912253 636:0.017627664 637:0.024498198 638:0.0038833302 639:0.014896384 640:0.093430758 641:0.036800262 642:0.29456857 643:0.23524018 644:0.43912253 645:0.023039719 646:0.045367703 647:0.0085433265 648:0.10999555 649:4.5539553e-005 650:0.0022702008 651:0.013172908 652:0.030054521 653:0.45378757 654:0.044566572 655:0.048629329 656:0.01840244 657:4.5539553e-005 658:0 659:0 660:0 661:0 662:0 663:0 664:0 665:0 666:0 667:0.44250721 668:0.031304032 669:0.22401017 670:0.18145938 671:0.45378757 672:0.012471781 673:0.061754871 674:0.027463412 675:0.45378757 676:0.17202297 677:0 678:0 679:0 680:0.021364 681:0 682:0.058028996 683:0.027190899 684:0.23053668 685:0.030631654 686:0 687:0 688:0 689:0.067307152 690:0 691:0 692:0 693:0.030631654 694:0.13738033 695:0 696:0 697:0 698:0.2687397 699:0 700:0 701:0 702:0.13738033 703:0.39438137 704:0 705:0 706:0 707:0.39438137 708:0 709:0.39438137 710:0.17187071 711:0.39438137 712:0.19631331 713:0 714:0 715:0 716:0.388486 717:0 718:0 719:0 720:0.19631331 721:0.0011281549 722:0.0031336949 723:0.0075972672 724:0.014048665 725:0.059156761 726:0 727:0 728:0 729:0.0011281549 730:0.0040788664 731:0.052784745 732:0.12448717 733:0.18561132 734:0.46084711 735:0 736:0 737:0 738:0.0028813297 739:0.0024656388 740:0.025063192 741:0.072647363 742:0.093385153 743:0.19467087 744:0 745:0 746:0 747:0.0024656388 748:0.010796076 749:0.19148473 750:0.46084711 751:0.46084711 752:0.46084711 753:0 754:0 755:0 756:0.0056067491 757:0 758:0 759:0 760:0 761:0 762:0 763:0 764:0 765:0 766:0 767:0 768:0 769:0 770:0 771:0 772:0 773:0 774:0 775:0 776:0 777:0 778:0 779:0 780:0 781:0 782:0 783:0 784:0 785:0 786:0 787:0 788:0 789:0 790:0 791:0 792:0 793:0 794:0 795:0 796:0 797:0 798:0 799:0 800:0 801:0 802:0 803:0 804:0 805:0 806:0 807:0 808:0 809:0 810:0 811:0 812:0 813:0 814:0 815:0 816:0 817:0 818:0 819:0 820:0 821:0 822:0 823:0 824:0 825:0 826:0 827:0 828:0 829:0 830:0 831:0 832:0 833:0 834:0 835:0 836:0 837:0 838:0 839:0 840:0 841:0 842:0.70461559 843:0 844:0 845:0 846:0 847:0 848:0 849:0 850:0 851:0 852:0 853:0 854:0 855:0 856:0 857:0 858:0 859:0 860:0.70461559 861:0 862:0 863:0 864:0 865:0.069376223 866:0.014279995 867:0.15103056 868:0.11881945 869:0.33654901 870:0.069401041 871:0.11662727 872:0.02444271 873:0.11676861 874:0.33654901 875:0.030638717 876:0.28196251 877:0.19250382 878:0.33654901 879:0.090663724 880:0.20290044 881:0.053773958 882:0.33654901 883:0.065809831 884:0 885:0.0031421403 886:0.0050079627 887:0.12281805 888:0.033274777 889:0.071990021 890:0.019010995 891:0.10267057 892:0.33654901 893:0 894:0.0069127097 895:0.0068680723 896:0.13673088 897:0.043433592 898:0.11662727 899:0.041824192 900:0.33654901 901:0.32803676 902:0.0043800296 903:0.036846701 904:0.022589471 905:0.20411971 906:0.030908287 907:0.088909641 908:0.032081023 909:0.32803676 910:0.16125837 911:0 912:0 913:0 914:0.27052414 915:0.050024182 916:0.10731256 917:0.032733336 918:0.22261518 919:0.32803676 920:0 921:0.0010022917 922:0.00066292321 923:0.32803676 924:0.069620557 925:0.11598298 926:0.029259957 927:0.32803676 928:0.11614972 929:0 930:0 931:0 932:0.32803676 933:0.1537962 934:0.22232354 935:0.034856502 936:0.16387172 937:0.051944919 938:0.00043808357 939:0.001310908 940:0 941:0.53335965 942:0.098163061 943:0.17682493 944:0.042474475 945:0.12497196 946:0.0080618132 947:0.00085329264 948:0.0025533682 949:0 950:0.013321367 951:0 952:0.0072484468 953:0.0024223051 954:0.0080618132 955:0.027629001 956:0.00096378376 957:0.0028839977 958:0 959:0.53335965 960:0.32566547 961:0.49622586 962:0.054343589 963:0.084427841 964:0.015192084 965:0.0020192086 966:0.0060422234 967:0 968:0.022023173 969:0 970:0.013109236 971:0.0043808799 972:0.015192084 973:0.001888453 974:0.02260807 975:0.080687046 976:0.087515436 977:0.281463 978:0.043015212 979:0.03937735 980:0.0094545549 981:0.001888453 982:0.0081569366 983:0.10580176 984:0.3432216 985:0.34583697 986:0.34583697 987:0.13958798 988:0.14512272 989:0.036354318 990:0.0065511288 991:0.0024935191 992:0.0042517046 993:0.021450721 994:0.022356616 995:0.27327168 996:0.10437074 997:0.090631135 998:0.028095856 999:0.0024935191 1000:0.0064336462 1001:0.016116153 1002:0.077621527 1003:0.066897325 1004:0.34583697 1005:0.34583697 1006:0.34583697 1007:0.15396495 1008:0.0093077682 1009:0 1010:0 1011:0 1012:0 1013:0 1014:0 1015:0 1016:0 1017:0 1018:0 1019:0 1020:0 1021:0 1022:0 1023:0 1024:0 1025:0 1026:0 1027:0 1028:0 1029:0 1030:0 1031:0 1032:0 1033:0 1034:0 1035:0 1036:0 1037:0 1038:0 1039:0 1040:0 1041:0 1042:0 1043:0 1044:0 1045:0 1046:0 1047:0 1048:0 1049:0 1050:0 1051:0 1052:0 1053:0 1054:0 1055:0 1056:0 1057:0 1058:0 1059:0 1060:0 1061:0 1062:0 1063:0 1064:0 1065:0 1066:0 1067:0 1068:0 1069:0 1070:0 1071:0 1072:0 1073:0 1074:0 1075:0 1076:0 1077:0 1078:0 1079:0 1080:0 1081:0 1082:0 1083:0 1084:0 1085:0 1086:0 1087:0 1088:0 1089:0 1090:0 1091:0 1092:0 1093:0 1094:0 1095:0 1096:0 1097:0 1098:0 1099:0 1100:0 1101:0 1102:0 1103:0 1104:0 1105:0 1106:0 1107:0 1108:0 1109:0 1110:0 1111:0 1112:0 1113:0 1114:0 1115:0 1116:0 1117:0.16907302 1118:0 1119:0 1120:0 1121:0 1122:0 1123:0 1124:0 1125:0.16907302 1126:0.54839045 1127:0 1128:0 1129:0 1130:0.18749939 1131:0 1132:0 1133:0 1134:0.54839045 1135:0 1136:0 1137:0 1138:0 1139:0 1140:0 1141:0 1142:0 1143:0 1144:0 1145:0 1146:0 1147:0 1148:0.54839045 1149:0 1150:0 1151:0 1152:0 1153:0.056206208 1154:0.012080349 1155:0.014837925 1156:0.0065402254 1157:0.28417966 1158:0.09243007 1159:0.094153211 1160:0.0067904186 1161:0.027928792 1162:0.096618444 1163:0.033838838 1164:0.033742651 1165:0.017877221 1166:0.28417966 1167:0.28417966 1168:0.28417966 1169:0.018406523 1170:0.029693741 1171:0.15655904 1172:0.063299656 1173:0.058013644 1174:0.065174446 1175:0.28109252 1176:0.09441606 1177:0.077536158 1178:0.038690805 1179:0.1261369 1180:0.28417966 1181:0.17072818 1182:0.1122209 1183:0.10809946 1184:0.28417966 1185:0.28417966 1186:0.28417966 1187:0.18566546 1188:0.28417966 1189:0.078535765 1190:0.044604011 1191:0.031832464 1192:0.021251041 1193:0.32005152 1194:0.32005152 1195:0.32005152 1196:0.018224215 1197:0.024513952 1198:0.0024999997 1199:0.00017561222 1200:0.00052549719 1201:0.00035931356 1202:0.010265411 1203:0.00032848748 1204:0.00091848761 1205:0.0003069427 1206:0.0024999997 1207:0.32005152 1208:0.21074784 1209:0.0922001 1210:0.087503523 1211:0.32005152 1212:0.32005152 1213:0.32005152 1214:0.32005152 1215:0.32005152 1216:0.0025478939 1217:0 1218:0 1219:0.0015570254 1220:0.051930245 1221:0.025522768 1222:0.0089969058 1223:0.011310233 1224:0.0096055567 1225:0.0032141963 1226:0.00016556954 1227:0.00049544644 1228:7.7978228e-005 1229:0.13893078 1230:0.069726594 1231:0.048920397 1232:0.01808859 1233:0.0032141963 1234:0.0073676393 1235:0.00010315744 1236:0.00030868608 1237:0.0011696735 1238:0.37278357 1239:0.37278357 1240:0.37278357 1241:0.28091395 1242:0.011686278 1243:0.0022305185 1244:0 1245:0 1246:0.00017155212 1247:0.026954668 1248:0.0079130353 1249:0.004662354 1250:0.001826892 1251:0.0022305185 1252:0.0046236101 1253:0 1254:0 1255:0.0025732818 1256:0.37278357 1257:0.32340088 1258:0.37278357 1259:0.2999391 1260:0.0049115191 1261:0 1262:0 1263:0 1264:0 1265:0 1266:0 1267:0 1268:0 1269:0 1270:0 1271:0 1272:0 1273:0 1274:0 1275:0 1276:0 1277:0 1278:0 1279:0 1280:0 1281:0 1282:0 1283:0 1284:0 1285:0 1286:0 1287:0 1288:0 1289:0 1290:0 1291:0 1292:0 1293:0 1294:0 1295:0 1296:0 1297:0 1298:0 1299:0 1300:0 1301:0 1302:0 1303:0 1304:0 1305:0 1306:0 1307:0 1308:0 1309:0 1310:0 1311:0 1312:0 1313:0 1314:0 1315:0 1316:0 1317:0 1318:0 1319:0 1320:0 1321:0 1322:0 1323:0 1324:0 1325:0 1326:0 1327:0 1328:0 1329:0 1330:0 1331:0 1332:0 1333:0 1334:0 1335:0 1336:0 1337:0 1338:0 1339:0 1340:0 1341:0 1342:0 1343:0 1344:0 1345:0 1346:0 1347:0 1348:0 1349:0 1350:0 1351:0 1352:0 1353:0 1354:0 1355:0 1356:0 1357:0 1358:0 1359:0 1360:0 1361:0 1362:0 1363:0 1364:0 1365:0 1366:0 1367:0 1368:0 1369:0 1370:0 1371:0 1372:0 1373:0 1374:0 1375:0 1376:0 1377:0 1378:0 1379:0 1380:0 1381:0 1382:0.96033996 1383:0 1384:0 1385:0 1386:0 1387:0 1388:0 1389:0 1390:0 1391:0 1392:0 1393:0 1394:0 1395:0 1396:0 1397:0 1398:0 1399:0 1400:0.26108775 1401:0 1402:0 1403:0 1404:0 1405:0.10261811 1406:0.038260199 1407:0.030026268 1408:0.050248727 1409:0.19822514 1410:0.051949322 1411:0.041534849 1412:0.060863767 1413:0.17073041 1414:0.27491307 1415:0.20849271 1416:0.21464108 1417:0.12261303 1418:0.27491307 1419:0.22963731 1420:0.21274573 1421:0.27491307 1422:0.27491307 1423:0.018416397 1424:0.01736086 1425:0.017933434 1426:0.038370647 1427:0.17709394 1428:0.01350738 1429:0.0076221102 1430:0.016398486 1431:0.036429092 1432:0.065553971 1433:0.27491307 1434:0.27491307 1435:0.25464651 1436:0.27491307 1437:0.13483681 1438:0.11616872 1439:0.16048527 1440:0.10698732 1441:0.19822203 1442:0.21845932 1443:0.27173901 1444:0.1186058 1445:0.28096208 1446:0.28096208 1447:0.24925238 1448:0.28096208 1449:0.28096208 1450:0.0022041998 1451:0.0082079545 1452:0.016994763 1453:0.017481795 1454:0.10632604 1455:0.046760079 1456:0.011432704 1457:0.014449457 1458:0.0086594131 1459:0.052721586 1460:0.28096208 1461:0.28096208 1462:0.2653999 1463:0.28096208 1464:0.20997219 1465:0.14793594 1466:0.19239181 1467:0.072740719 1468:0.0046255947 1469:0.017753845 1470:0.031612817 1471:0.022033945 1472:0.094206423 1473:0.026257396 1474:0.0057259034 1475:0.0067539057 1476:0.0053924895 1477:0.0020424754 1478:0 1479:0 1480:8.9660214e-005 1481:0.0089433771 1482:0 1483:0 1484:0 1485:0.0020424754 1486:0.074749313 1487:0 1488:0 1489:0.0013449033 1490:0.38640156 1491:0.22382049 1492:0.29634607 1493:0.19659804 1494:0.074749313 1495:0.0011385004 1496:0 1497:0 1498:0 1499:0.022036301 1500:0 1501:0 1502:0 1503:0.0011385004 1504:0.38640156 1505:0.090016142 1506:0.0077769794 1507:0.1591126 1508:0.38640156 1509:0.35779905 1510:0.19523163 1511:0.10477874 1512:0.38640156 1513:0 1514:0 1515:0 1516:0 1517:0 1518:0 1519:0 1520:0 1521:0 1522:0 1523:0 1524:0 1525:0 1526:0 1527:0 1528:0 1529:0 1530:0 1531:0 1532:0 1533:0 1534:0 1535:0 1536:0 1537:0 1538:0 1539:0 1540:0 1541:0 1542:0 1543:0 1544:0 1545:0 1546:0 1547:0 1548:0 1549:0 1550:0 1551:0 1552:0 1553:0 1554:0 1555:0 1556:0 1557:0 1558:0 1559:0 1560:0 1561:0 1562:0 1563:0 1564:0 1565:0 1566:0 1567:0 1568:0 1569:0 1570:0 1571:0 1572:0 1573:0 1574:0 1575:0 1576:0 1577:0 1578:0 1579:0 1580:0 1581:0 1582:0 1583:0 1584:0 1585:0 1586:0 1587:0 1588:0 1589:0 1590:0 1591:0 1592:0 1593:0 1594:0 1595:0 1596:0 1597:0 1598:0 1599:0 1600:0 1601:0 1602:0 1603:0 1604:0 1605:0 1606:0 1607:0 1608:0 1609:0 1610:0 1611:0 1612:0 1613:0 1614:0 1615:0 1616:0 1617:0 1618:0 1619:0 1620:0 1621:0 1622:0 1623:0 1624:0 1625:0 1626:0 1627:0 1628:0 1629:0 1630:0 1631:0 1632:0 1633:0 1634:0.94762856 1635:0 1636:0 1637:0 1638:0 1639:0 1640:0 1641:0 1642:0 1643:0 1644:0 1645:0 1646:0 1647:0 1648:0 1649:0 1650:0 1651:0 1652:0.063175239 1653:0 1654:0 1655:0 1656:0 1657:0.0017263482 1658:0.0071504735 1659:0.0084567005 1660:0.025659712 1661:0.25811836 1662:0.041872445 1663:0.023035059 1664:0.025854096 1665:0.0022107041 1666:0.029564317 1667:0.1300499 1668:0.13906561 1669:0.1677721 1670:0.33030766 1671:0.26985535 1672:0.33030766 1673:0.33030766 1674:0.061901253 1675:0.00051522529 1676:0 1677:0 1678:0 1679:0.043887235 1680:0.019032931 1681:0.015710758 1682:0.019721473 1683:0.0026102618 1684:0.11904932 1685:0 1686:0 1687:0.00062812329 1688:0.33030766 1689:0.24789913 1690:0.33030766 1691:0.33030766 1692:0.22633757 1693:0.072486527 1694:0.080711223 1695:0.089101292 1696:0.055142283 1697:0.29416537 1698:0.12274491 1699:0.2111257 1700:0.19349295 1701:0.090188734 1702:0.2479239 1703:0.05402394 1704:0.063687786 1705:0.0020055815 1706:0.035911825 1707:0.016116096 1708:0.021374911 1709:0.018895194 1710:0.17688279 1711:0.29416537 1712:0.093332879 1713:0.10102657 1714:0.0010679665 1715:0.29416537 1716:0.16717975 1717:0.26216486 1718:0.19316171 1719:0.29416537 1720:0.29416537 1721:0.20138022 1722:0.21032624 1723:0.00048543926 1724:0.062018964 1725:0.028536169 1726:0.055806823 1727:0.048240643 1728:0.29416537 1729:0.21615569 1730:0.032454938 1731:0.045909833 1732:0 1733:0.0063866819 1734:0 1735:0.06907665 1736:0.081525445 1737:0.12687658 1738:0.15747695 1739:0.028065791 1740:0.012300184 1741:0.044836573 1742:0.29587123 1743:0.1746638 1744:0.20022345 1745:0.15333208 1746:0.12022428 1747:0.29587123 1748:0.088911831 1749:0.11490322 1750:0 1751:0.049366478 1752:0.005679098 1753:0.29587123 1754:0.29587123 1755:0.29587123 1756:0.13576016 1757:0.014428403 1758:0.020992337 1759:0.006603579 1760:0.29587123 1761:0.17614479 1762:0.29587123 1763:0.29587123 1764:0.096162155 
0.01512822734155134 1:0 2:0 3:0 4:0 5:0 6:0 7:0 8:0 9:0 10:0 11:0 12:0 13:0 14:0 15:0 16:0 17:0 18:0 19:0 20:0 21:0 22:0 23:0 24:0 25:0 26:0 27:0 28:0 29:0 30:0 31:0 32:0 33:0 34:0 35:0 36:0 37:0 38:0 39:0 40:0 41:0 42:0 43:0 44:0 45:0 46:0 47:0 48:0 49:0 50:0 51:0 52:0 53:0 54:0 55:0 56:0 57:0 58:0 59:0 60:0 61:0 62:0 63:0 64:0 65:0 66:0 67:0 68:0 69:0 70:0 71:0 72:0 73:0 74:0 75:0 76:0 77:0 78:0 79:0 80:0 81:0 82:0 83:0 84:0 85:0 86:0 87:0 88:0 89:0 90:0 91:0 92:0 93:0 94:0 95:0 96:0 97:0 98:0 99:0 100:0 101:0 102:0 103:0 104:0 105:0 106:0 107:0 108:0 109:0 110:0 111:0 112:0 113:0 114:0 115:0 116:0 117:0 118:0 119:0 120:0 121:0 122:0.39343673 123:0 124:0 125:0 126:0 127:0 128:0 129:0 130:0 131:0 132:0 133:0 134:0 135:0 136:0 137:0 138:0 139:0 140:0.89164144 141:0 142:0 143:0 144:0 145:0.0023056914 146:0.018197997 147:0.014719589 148:0.018745542 149:0.045046043 150:0 151:0 152:0 153:0.00048474671 154:0.17385639 155:0.32776055 156:0.33008334 157:0.21798711 158:0.33008334 159:0 160:0 161:0 162:0.086894616 163:0.0019476131 164:0.024087677 165:0.021694912 166:0.041240193 167:0.28219301 168:0.031551406 169:0.01084368 170:0.0093773846 171:0.0020728789 172:0.056357928 173:0.33008334 174:0.33008334 175:0.25317565 176:0.33008334 177:0.20503648 178:0.18347621 179:0.17027047 180:0.026602244 181:0.28750095 182:0.20530519 183:0.26805469 184:0.16989303 185:0.28750095 186:0 187:0.093080923 188:0.085650034 189:0.28750095 190:0.28750095 191:0.046083134 192:0.05320609 193:0.028469602 194:0.061792508 195:0 196:0.19658259 197:0.18667491 198:0.28750095 199:0.091450006 200:0.212267 201:0.23073539 202:0.13165639 203:0.28750095 204:0.080857977 205:0.12675236 206:0.11369928 207:0.068883806 208:0.17091909 209:0.018915055 210:0.021377645 211:0.01645853 212:0.038358867 213:0.0028023242 214:0.062595837 215:0.052171387 216:0.2378145 217:0.28549027 218:0.28549027 219:0.28549027 220:0.0045122099 221:0.037441466 222:0 223:0.11272612 224:0.086515643 225:0.28549027 226:0.09024398 227:0.28549027 228:0.28549027 229:0.17623283 230:0.28549027 231:0.0073223417 232:0.021014109 233:0.014866368 234:0.13199115 235:0.12735085 236:0.078687511 237:0.066585615 238:0 239:0.0078810649 240:0 241:0.045482405 242:0.031980209 243:0.21517411 244:0.15959032 245:0.15929265 246:0.22020906 247:0.21045601 248:0.28549027 249:0.060344145 250:0.013186403 251:0.036182553 252:0.20274839 253:0 254:0 255:0 256:0 257:0 258:0 259:0 260:0 261:0 262:0 263:0 264:0 265:0 266:0 267:0 268:0 269:0 270:0 271:0 272:0 273:0 274:0 275:0 276:0 277:0 278:0 279:0 280:0 281:0 282:0 283:0 284:0 285:0 286:0 287:0 288:0 289:0 290:0 291:0 292:0 293:0 294:0 295:0 296:0 297:0 298:0 299:0 300:0 301:0 302:0 303:0 304:0 305:0 306:0 307:0 308:0 309:0 310:0 311:0 312:0 313:0 314:0 315:0 316:0 317:0 318:0 319:0 320:0 321:0 322:0 323:0 324:0 325:0 326:0 327:0 328:0 329:0 330:0 331:0 332:0 333:0 334:0 335:0 336:0 337:0 338:0 339:0 340:0 341:0 342:0 343:0 344:0 345:0 346:0 347:0 348:0 349:0 350:0 351:0 352:0 353:0 354:0 355:0 356:0 357:0 358:0 359:0 360:0 361:0 362:0 363:0 364:0 365:0 366:0 367:0 368:0 369:0 370:0 371:0 372:0 373:0 374:0.25598317 375:0 376:0 377:0 378:0 379:0 380:0 381:0 382:0 383:0 384:0 385:0 386:0 387:0 388:0 389:0 390:0 391:0 392:0.9617061 393:0 394:0 395:0 396:0 397:0.039955102 398:0.016221412 399:0.0064805816 400:0.010352895 401:0.13380216 402:0.030720109 403:0.01494758 404:0.014840217 405:0.01894702 406:0.11628962 407:0.14878203 408:0.095917232 409:0.1195069 410:0.26831576 411:0.20634623 412:0.26831576 413:0.26831576 414:0.06385754 415:0.19530521 416:0.068811417 417:0.049292438 418:0.063083053 419:0.24057482 420:0.060800355 421:0.037605409 422:0.047435619 423:0.12583485 424:0.26831576 425:0.26831576 426:0.24156785 427:0.25998521 428:0.26831576 429:0.13251473 430:0.21038945 431:0.2185816 432:0.26831576 433:0.079124145 434:0.18749468 435:0.13210171 436:0.21067418 437:0.27740756 438:0.23271804 439:0.27740756 440:0.27740756 441:0.049710542 442:0.0054950225 443:0.0068669338 444:0.0058612218 445:0.028036946 446:0.094485708 447:0.021361316 448:0.02935799 449:0.016071159 450:0.0044881944 451:0.27740756 452:0.27740756 453:0.27740756 454:0.27740756 455:0.27740756 456:0.12090762 457:0.26198253 458:0.22298706 459:0.24750832 460:0.011475053 461:0.016313655 462:0.012916268 463:0.050368428 464:0.11102656 465:0.017099999 466:0.016094392 467:0.0075470153 468:0.0037571755 469:0.0044476255 470:0 471:0 472:0 473:0.019415563 474:0 475:0 476:0 477:0.0044476255 478:0.37868842 479:0.081162609 480:0.13972391 481:0.269925 482:0.37868842 483:0.12039461 484:0.0054688244 485:0.067382708 486:0.37868842 487:0.0064301952 488:0 489:0 490:0 491:0.013794031 492:0 493:4.3440446e-005 494:1.4517032e-005 495:0.0064301952 496:0.068058327 497:0.27098852 498:0.37868842 499:0.27867135 500:0.37868842 501:0.0013010127 502:0 503:0 504:0.068859562 505:0 506:0 507:0 508:0 509:0 510:0 511:0 512:0 513:0 514:0 515:0 516:0 517:0 518:0 519:0 520:0 521:0 522:0 523:0 524:0 525:0 526:0 527:0 528:0 529:0 530:0 531:0 532:0 533:0 534:0 535:0 536:0 537:0 538:0 539:0 540:0 541:0 542:0 543:0 544:0 545:0 546:0 547:0 548:0 549:0 550:0 551:0 552:0 553:0 554:0 555:0 556:0 557:0 558:0 559:0 560:0 561:0 562:0 563:0 564:0 565:0 566:0 567:0 568:0 569:0 570:0 571:0 572:0 573:0 574:0 575:0 576:0 577:0 578:0 579:0 580:0 581:0 582:0 583:0 584:0 585:0 586:0 587:0 588:0 589:0 590:0 591:0 592:0 593:0 594:0 595:0 596:0 597:0 598:0 599:0 600:0 601:0 602:0 603:0 604:0 605:0 606:0 607:0 608:0 609:0 610:0 611:0 612:0 613:0 614:0 615:0 616:0 617:0 618:0 619:0 620:0 621:0 622:0 623:0 624:0 625:0 626:0.53185987 627:0 628:0 629:0 630:0 631:0.24985883 632:0 633:0 634:0 635:0 636:0 637:0 638:0 639:0.24985883 640:0.53185987 641:0 642:0 643:0 644:0.14561877 645:0 646:0 647:0 648:0.53185987 649:0.098437466 650:0.029489079 651:0.073673666 652:0.087160803 653:0.24289577 654:0.053821508 655:0.050726645 656:0.054168873 657:0.134789 658:0.28998023 659:0.13652255 660:0.28747073 661:0.29838893 662:0.29838893 663:0.09128622 664:0.099431381 665:0.14653789 666:0.29838893 667:0.036757693 668:0.0079105375 669:0.10780351 670:0.10454202 671:0.29838893 672:0.0056188633 673:0.013127204 674:0.010481919 675:0.062175058 676:0.029679427 677:0.020959858 678:0.29838893 679:0.29838893 680:0.29838893 681:0.015891859 682:0.030439178 683:0.029395862 684:0.089694507 685:0.32822451 686:0.26973516 687:0.32822451 688:0.32822451 689:0.32822451 690:0.079056926 691:0.0878314 692:0.18990734 693:0.32822451 694:0.0093733277 695:0.0082568377 696:0.0065723704 697:0.017928757 698:0.043601394 699:0.0014091554 700:0.0018378305 701:0.00061417132 702:0.004077985 703:0.02331542 704:0.021100378 705:0.32822451 706:0.32822451 707:0.32822451 708:0.019899944 709:0.031778224 710:0.040885419 711:0.073634692 712:0.0027305502 713:0 714:0 715:0.00031646481 716:0.011507255 717:0.0003251897 718:0.0017812819 719:0.00059527392 720:0.0027305502 721:0.0025323944 722:0.0019690527 723:0.004923787 724:0.0084029045 725:0.024929341 726:0 727:7.7268494e-005 728:2.5821773e-005 729:0.0025323944 730:0.004458291 731:0.25271684 732:0.38034901 733:0.29500189 734:0.38034901 735:0 736:0 737:0 738:0.0041279648 739:0.002899678 740:0.02214356 741:0.060908094 742:0.084460244 743:0.1623136 744:0 745:6.0097718e-005 746:2.00836e-005 747:0.002899678 748:0.012401535 749:0.28862798 750:0.38034901 751:0.38034901 752:0.38034901 753:0 754:0 755:0 756:0.0074466369 757:0 758:0 759:0 760:0 761:0 762:0 763:0 764:0 765:0 766:0 767:0 768:0 769:0 770:0 771:0 772:0 773:0 774:0 775:0 776:0 777:0 778:0 779:0 780:0 781:0 782:0 783:0 784:0 785:0 786:0 787:0 788:0 789:0 790:0 791:0 792:0 793:0 794:0 795:0 796:0 797:0 798:0 799:0 800:0 801:0 802:0 803:0 804:0 805:0 806:0 807:0 808:0 809:0 810:0 811:0 812:0 813:0 814:0 815:0 816:0 817:0 818:0 819:0 820:0 821:0 822:0 823:0 824:0 825:0 826:0 827:0 828:0 829:0 830:0 831:0 832:0 833:0 834:0 835:0 836:0 837:0 838:0 839:0 840:0 841:0 842:0.70461559 843:0 844:0 845:0 846:0 847:0 848:0 849:0 850:0 851:0 852:0 853:0 854:0 855:0 856:0 857:0 858:0 859:0 860:0.70461559 861:0 862:0 863:0 864:0 865:0.091028303 866:0.017190136 867:0.066629976 868:0.031785633 869:0.12090299 870:0.0054621734 871:0.003427123 872:0 873:0.057528887 874:0.32944772 875:0.037818298 876:0.10883411 877:0.041494559 878:0.13562213 879:0.0074909911 880:0.00753967 881:0 882:0.32944772 883:0.10473488 884:0.022101602 885:0.10883411 886:0.06648919 887:0.32944772 888:0.13519567 889:0.17291351 890:0.016643286 891:0.061664212 892:0.32944772 893:0.048623525 894:0.19089696 895:0.0868662 896:0.32944772 897:0.22184682 898:0.32120275 899:0.035654578 900:0.32944772 901:0.32107541 902:0.030919671 903:0.11200077 904:0.061829038 905:0.32107541 906:0.00087997754 907:0.0013304609 908:0 909:0.32107541 910:0.17983696 911:0.035302736 912:0.19726138 913:0.13221824 914:0.32107541 915:0 916:1.1111045e-005 917:3.7131256e-006 918:0.12839673 919:0.32107541 920:0.035085332 921:0.096743964 922:0.033034489 923:0.2387189 924:0.032062106 925:0.050898988 926:0.0061978605 927:0.32107541 928:0.24793133 929:0.035740629 930:0.1149962 931:0.051714722 932:0.26540977 933:0 934:0 935:0 936:0.18179393 937:0.10078257 938:0.057759635 939:0.46608627 940:0.30999619 941:0.53690052 942:0 943:0.000492814 944:0.00016469019 945:0.030444019 946:0.0037678524 947:0 948:0 949:0 950:0.0076434892 951:0 952:0.0003832998 953:0.00012809239 954:0.0037678524 955:0.15686452 956:0.051345568 957:0.21220273 958:0.1141981 959:0.53690052 960:0 961:0 962:0 963:0.06642925 964:0.0095615815 965:0 966:0 967:0 968:0.019045131 969:0 970:0 971:0 972:0.0095615815 973:0.0013799763 974:0.024306295 975:0.080498025 976:0.09199097 977:0.25445276 978:0.025102671 979:0.023160955 980:0.004558858 981:0.0013799763 982:0.0078188153 983:0.12690738 984:0.34477338 985:0.34477338 986:0.34477338 987:0.075797394 988:0.087382674 989:0.018658832 990:0.0056487611 991:0.0022693286 992:0.0084050624 993:0.036195219 994:0.040951557 995:0.30682534 996:0.1041785 997:0.094479434 998:0.027179074 999:0.0022693286 1000:0.0070386427 1001:0.032873344 1002:0.13502465 1003:0.13069963 1004:0.34477338 1005:0.34477338 1006:0.34477338 1007:0.13298891 1008:0.0093037728 1009:0 1010:0 1011:0 1012:0 1013:0 1014:0 1015:0 1016:0 1017:0 1018:0 1019:0 1020:0 1021:0 1022:0 1023:0 1024:0 1025:0 1026:0 1027:0 1028:0 1029:0 1030:0 1031:0 1032:0 1033:0 1034:0 1035:0 1036:0.36803758 1037:0 1038:0 1039:0 1040:0.73607516 1041:0 1042:0 1043:0 1044:0.36803758 1045:0 1046:0 1047:0 1048:0 1049:0 1050:0 1051:0 1052:0 1053:0 1054:0 1055:0 1056:0 1057:0 1058:0 1059:0 1060:0 1061:0 1062:0 1063:0.30451939 1064:0 1065:0 1066:0 1067:0.63577348 1068:0 1069:0 1070:0 1071:0.30451939 1072:0.23684838 1073:0 1074:0 1075:0 1076:0.51038873 1077:0 1078:0 1079:0 1080:0.23684838 1081:0 1082:0 1083:0 1084:0 1085:0 1086:0 1087:0 1088:0 1089:0 1090:0 1091:0 1092:0 1093:0 1094:0.70449615 1095:0 1096:0 1097:0 1098:0 1099:0 1100:0 1101:0 1102:0 1103:0.0018032744 1104:0 1105:0 1106:0 1107:0 1108:0.012934059 1109:0 1110:0 1111:0 1112:0.70449615 1113:0 1114:0 1115:0 1116:0.012934059 1117:0.0095588341 1118:0.0024500086 1119:0.01607327 1120:0.011830261 1121:0.45760146 1122:0.1066497 1123:0.13274963 1124:0.014190694 1125:0.0047843624 1126:0.071487136 1127:0.0053900187 1128:0.029980645 1129:0.015542452 1130:0.45760146 1131:0.19524351 1132:0.23652664 1133:0.029922213 1134:0.060688172 1135:0.00017141778 1136:0.023013201 1137:0.045169726 1138:0.047760259 1139:0.45760146 1140:0.013993175 1141:0.010352636 1142:0.001178897 1143:0.00017141778 1144:0.00027944133 1145:0.038196158 1146:0.087872356 1147:0.08724688 1148:0.45760146 1149:0.031292874 1150:0.016143763 1151:0.0022941937 1152:0.00027944133 1153:0.38160789 1154:0.020123877 1155:0.046623677 1156:0.0098901559 1157:0.54280806 1158:0.17721042 1159:0.20803463 1160:0.029520763 1161:0.33821064 1162:0.17615423 1163:0.019924192 1164:0.042520821 1165:0 1166:0.020916561 1167:0 1168:0 1169:0 1170:0.134157 1171:0.0024837225 1172:0.031656098 1173:0.082391635 1174:0.079619668 1175:0.54280806 1176:0.032725275 1177:0.012609283 1178:0.0021516008 1179:0.0024837225 1180:0.0013032586 1181:0 1182:0 1183:0 1184:0.0025068838 1185:0 1186:0 1187:0 1188:0.0013032586 1189:0.40078861 1190:0.13200966 1191:0.40078861 1192:0 1193:0.37884682 1194:0 1195:0 1196:0 1197:0.35834283 1198:0.24521501 1199:0 1200:0 1201:0 1202:0.40078861 1203:0 1204:0 1205:0 1206:0.24521501 1207:0.027892141 1208:0 1209:0 1210:0 1211:0.062111698 1212:0 1213:0 1214:0 1215:0.027892141 1216:0.13138902 1217:0 1218:0 1219:0 1220:0.25404692 1221:0 1222:0 1223:0 1224:0.13138902 1225:0.0021890525 1226:0 1227:0 1228:0.00075668789 1229:0.15348579 1230:0.075430855 1231:0.05614635 1232:0.019838072 1233:0.0021890525 1234:0.0049895197 1235:0 1236:0 1237:0.0016647131 1238:0.48744616 1239:0.48744616 1240:0.41340169 1241:0.16382506 1242:0.0095056836 1243:0.0010504425 1244:0 1245:0 1246:5.0445855e-005 1247:0.066232927 1248:0.013433776 1249:0.0070702517 1250:0.0029030836 1251:0.0010504425 1252:0.0028344032 1253:0 1254:0 1255:0.00011098089 1256:0.48744616 1257:0.17673911 1258:0.11580712 1259:0.048575871 1260:0.0038765946 1261:0 1262:0 1263:0 1264:0 1265:0 1266:0 1267:0 1268:0 1269:0 1270:0.00026739499 1271:0 1272:0 1273:0 1274:0.00051230163 1275:0 1276:0 1277:0 1278:0.00026739499 1279:0.46103892 1280:0 1281:0 1282:0 1283:0 1284:0 1285:0.0094430093 1286:0.052839324 1287:0.46103892 1288:0.46103892 1289:0 1290:0 1291:0 1292:0.00039845682 1293:0 1294:0.13927421 1295:0.3505542 1296:0.46103892 1297:0.0025053616 1298:0 1299:0 1300:0 1301:0.0050107231 1302:0 1303:0 1304:0 1305:0.0025053616 1306:0.0019486145 1307:0 1308:0 1309:0 1310:0.0040225275 1311:0 1312:0 1313:0 1314:0.0019486145 1315:0.40634257 1316:0 1317:0 1318:0 1319:0.003897229 1320:0 1321:0.27623263 1322:0.40634257 1323:0.40634257 1324:0.40634257 1325:0 1326:0 1327:0 1328:0.0031286324 1329:0 1330:0.12871264 1331:0.2782293 1332:0.40634257 1333:0 1334:0 1335:0 1336:0 1337:0.00021746384 1338:0 1339:0 1340:0 1341:0 1342:0.060515374 1343:0.058525991 1344:0.040537912 1345:0.0086760987 1346:0.17333566 1347:0 1348:0 1349:0 1350:0.03091036 1351:0.31034419 1352:0.11207943 1353:0.081138194 1354:0 1355:0.00016913853 1356:0 1357:0.010369931 1358:0.015578452 1359:0.2651172 1360:0.38566026 1361:0.38566026 1362:0.38566026 1363:0.16301541 1364:0.38566026 1365:0.0010381669 1366:0 1367:0 1368:0.38566026 1369:0.051646806 1370:0.098856047 1371:0.12440956 1372:0.15464772 1373:0.32258388 1374:7.6447555e-005 1375:0 1376:0 1377:0.017448701 1378:0.038436942 1379:0.12122491 1380:0.19758615 1381:0.25077096 1382:0.32258388 1383:0.00033127278 1384:0 1385:0 1386:0.0084222192 1387:0.27793872 1388:0.27848932 1389:0.25154611 1390:0.21962558 1391:0.32258388 1392:0.00096338394 1393:0 1394:0 1395:0.085124895 1396:0.15373103 1397:0.17367244 1398:0.16444984 1399:0.23464297 1400:0.32258388 1401:0.00074929855 1402:0 1403:0 1404:0.027671618 1405:0.015958639 1406:0.15713117 1407:0.35902452 1408:0.44285637 1409:0.50390476 1410:0.0011760306 1411:0 1412:0 1413:0.0046654386 1414:0.0015050141 1415:0 1416:0 1417:0 1418:0.0033669167 1419:0 1420:0 1421:0 1422:0.0015050141 1423:0.0601473 1424:0.10281771 1425:0.16059171 1426:0.31147769 1427:0.50390476 1428:0 1429:0 1430:0 1431:0.011210103 1432:0.00020431941 1433:0 1434:0 1435:0 1436:0.00022446111 1437:0 1438:0 1439:0 1440:0.00020431941 1441:0.00075389526 1442:0 1443:0 1444:0 1445:0 1446:0 1447:0 1448:0 1449:0.00075389526 1450:0.026514813 1451:0 1452:0 1453:0 1454:0.051673856 1455:0 1456:0 1457:0 1458:0.026514813 1459:0.0031852985 1460:0 1461:0 1462:0 1463:0 1464:0 1465:0 1466:0 1467:0.0031852985 1468:0.49709773 1469:0.49709773 1470:0.49709773 1471:0 1472:0.050129142 1473:0 1474:0 1475:0 1476:0.49709773 1477:0.0030597842 1478:0.0093950629 1479:0.021917731 1480:0.013249349 1481:0.051306862 1482:0 1483:0 1484:0 1485:0.0016617324 1486:0.0083955042 1487:0.082391791 1488:0.21855414 1489:0.1305598 1490:0.40403065 1491:0 1492:0 1493:0 1494:0.0053197904 1495:0.023483217 1496:0.16197559 1497:0.2025287 1498:0.14119084 1499:0.16348813 1500:0 1501:0 1502:0 1503:0.017424993 1504:0.024341764 1505:0.39041877 1506:0.40403065 1507:0.40403065 1508:0.40403065 1509:0 1510:0 1511:0 1512:0.011013671 1513:0.31565151 1514:0 1515:0 1516:0.00019474859 1517:0.0056610154 1518:0.010609376 1519:0.013771032 1520:0.040531605 1521:0.31565151 1522:0.31565151 1523:0 1524:0 1525:0 1526:9.1547889e-005 1527:0 1528:0.076912716 1529:0.20642857 1530:0.31565151 1531:0.31565151 1532:0 1533:0 1534:0.00042844692 1535:0.012997229 1536:0.027368475 1537:0.20276657 1538:0.23127754 1539:0.31565151 1540:0.31565151 1541:0 1542:0 1543:0 1544:0.0011922488 1545:0 1546:0.13450025 1547:0.18878604 1548:0.31565151 1549:0.31627938 1550:0 1551:0 1552:0 1553:1.025522e-005 1554:0 1555:0.10223926 1556:0.24267878 1557:0.31627938 1558:0.31627938 1559:0 1560:0 1561:0 1562:0 1563:0 1564:0.063536271 1565:0.14251001 1566:0.31627938 1567:0.31627938 1568:0 1569:0 1570:0 1571:0.00035650886 1572:0 1573:0.1195803 1574:0.22977471 1575:0.31627938 1576:0.31627938 1577:0 1578:0 1579:0 1580:0.024474153 1581:0 1582:0.083776221 1583:0.1678497 1584:0.31627938 1585:0.30699465 1586:0.10161076 1587:0.073871017 1588:0 1589:0 1590:0 1591:0.0099849934 1592:0.015000172 1593:0.30699465 1594:0.30699465 1595:0.30699465 1596:0.28727072 1597:0.032605775 1598:0.1853466 1599:0.00022304748 1600:0 1601:0 1602:0.26194945 1603:0.30699465 1604:0.075952888 1605:0.055334996 1606:0 1607:0.041476384 1608:0 1609:0.012674878 1610:0.018156249 1611:0.30699465 1612:0.30699465 1613:0.24198189 1614:0.14946665 1615:0.0042981603 1616:0.030304281 1617:1.4869833e-005 1618:0 1619:0 1620:0.20414145 1621:0.30504212 1622:0.30504212 1623:0.30504212 1624:0.1894477 1625:0.30504212 1626:0.0018376295 1627:0 1628:0 1629:0.19709982 1630:0.14784265 1631:0.12506494 1632:0.10560399 1633:0.1087561 1634:0.30504212 1635:0.0014292672 1636:0 1637:0 1638:0.034822784 1639:0.30504212 1640:0.23210797 1641:0.12606883 1642:0.021478102 1643:0.12862457 1644:0.00012250863 1645:0 1646:0 1647:0.14483379 1648:0.29176211 1649:0.16635062 1650:0.079376474 1651:0.0097627742 1652:0.083469585 1653:9.5284486e-005 1654:0 1655:0 1656:0.26134562 1657:0.0072459658 1658:0.0042199111 1659:0.0023606375 1660:0.006402127 1661:0.023656871 1662:0 1663:0 1664:0 1665:0.0025292914 1666:0.011997554 1667:0 1668:0 1669:0 1670:0.0012184357 1671:0 1672:0 1673:0 1674:0.0088300295 1675:0.37409267 1676:0.35753092 1677:0.1664338 1678:0 1679:0.010075415 1680:0 1681:0 1682:0 1683:0.37409267 1684:0.37409267 1685:0.37409267 1686:0.37409267 1687:0 1688:0.0073720459 1689:0 1690:0 1691:0 1692:0.37409267 1693:0.017046349 1694:0.036891669 1695:0.03234183 1696:0 1697:0.00065497396 1698:0 1699:0 1700:0 1701:0.010191264 1702:0.084488958 1703:0.33098781 1704:0.27370301 1705:0 1706:0.00088460807 1707:0 1708:0 1709:0 1710:0.058214139 1711:0.33098781 1712:0.33098781 1713:0.33098781 1714:0 1715:0.0016394641 1716:0 1717:0 1718:0 1719:0.33098781 1720:0.33098781 1721:0.33098781 1722:0.33098781 1723:0 1724:0.0024293147 1725:0 1726:0 1727:0 1728:0.17893498 1729:0.1550847 1730:0.31342551 1731:0.31342551 1732:0.10347933 1733:0.12529567 1734:0 1735:0 1736:0 1737:0.090246089 1738:0.066066898 1739:0.31342551 1740:0.31342551 1741:0.31342551 1742:0.31342551 1743:0 1744:0 1745:0 1746:0.026766097 1747:0.18886529 1748:0.31342551 1749:0.31342551 1750:0.0097715929 1751:0.013650094 1752:0 1753:0 1754:0 1755:0.093595445 1756:0.072623491 1757:0.24550702 1758:0.1844624 1759:0.023672 1760:0.040957108 1761:0 1762:0 1763:0 1764:0.027856547 
0.003243341185180362 1:0.068273939 2:0.23354632 3:0.17610478 4:0.022629561 5:0.036590312 6:0 7:0 8:0 9:0.02685356 10:0.18684751 11:0.31517199 12:0.31517199 13:0.0093450733 14:0.012287707 15:0 16:0 17:0 18:0.09605547 19:0.064061143 20:0.31517199 21:0.31517199 22:0.31517199 23:0.31517199 24:0.00019254789 25:0 26:0 27:0.026691608 28:0.15549175 29:0.31517199 30:0.31517199 31:0.10447406 32:0.1272188 33:0 34:0 35:0 36:0.094463266 37:0.33273023 38:0.33273023 39:0.33273023 40:0 41:0.0010169275 42:0 43:0 44:0 45:0.18060525 46:0.33273023 47:0.33273023 48:0.33273023 49:0 50:0.00021629404 51:0 52:0 53:0 54:0.33273023 55:0.07846836 56:0.33273023 57:0.25757509 58:0 59:0 60:0 61:0 62:0 63:0.055429716 64:0.018639538 65:0.036480829 66:0.031608123 67:0 68:2.7804737e-005 69:0 70:0 71:0 72:0.011356656 73:0.36959216 74:0.36959216 75:0.36504105 76:0 77:0.0027910545 78:0 79:0 80:0 81:0.36959216 82:0.36959216 83:0.36959216 84:0.18798889 85:0 86:0.015142843 87:0 88:0 89:0 90:0.36959216 91:0.0096259089 92:0 93:0 94:0 95:0.00062508445 96:0 97:0 98:0 99:0.0072081545 100:0.022930458 101:0.014435631 102:0.0085961372 103:0.023313152 104:0.0796405 105:0 106:0 107:0 108:0.0067954762 109:0.1451219 110:0.079831809 111:0.040128049 112:0.010760682 113:0.060152233 114:9.8815275e-005 115:0 116:0 117:0.121664 118:0.33159387 119:0.26045987 120:0.14707732 121:0.023091948 122:0.1013606 123:0.0001270482 124:0 125:0 126:0.11776944 127:0.16567235 128:0.14240427 129:0.12097219 130:0.12343136 131:0.33159387 132:0.001482229 133:0 134:0 135:0.036710259 136:0.33159387 137:0.33159387 138:0.33159387 139:0.21187633 140:0.33159387 141:0.0019057231 142:0 143:0 144:0.22669588 145:0.31742504 146:0.21687283 147:0.13691765 148:0.003388748 149:0.020996174 150:1.1468177e-005 151:0 152:0 153:0.20292111 154:0.31742504 155:0.071977079 156:0.052886117 157:0 158:0.031405106 159:0 160:0.017854556 161:0.024833428 162:0.31742504 163:0.31742504 164:0.31742504 165:0.25760323 166:0.026818652 167:0.16117719 168:0.00017202266 169:0 170:0 171:0.25707918 172:0.31742504 173:0.096384346 174:0.070378803 175:0 176:0.00081347406 177:0 178:0.016302727 179:0.023510495 180:0.31742504 181:0.30866507 182:0 183:0 184:0 185:0.012643067 186:0 187:0.072206676 188:0.15163141 189:0.30866507 190:0.30866507 191:0 192:0 193:0 194:0.00066598947 195:0 196:0.12201082 197:0.24372509 198:0.30866507 199:0.30866507 200:0 201:0 202:0 203:0.00076473149 204:0 205:0.063931338 206:0.1459499 207:0.30866507 208:0.30866507 209:0 210:0 211:0 212:0.00052994234 213:0 214:0.12701999 215:0.3009063 216:0.30866507 217:0.32299909 218:0 219:0 220:0 221:9.1350303e-005 222:0 223:0.097175464 224:0.14615597 225:0.32299909 226:0.32299909 227:0 228:0 229:0.00054971478 230:0.015425269 231:0.03670131 232:0.19667064 233:0.22579601 234:0.32299909 235:0.32299909 236:0 237:0 238:0 239:0.00068052992 240:0 241:0.067809343 242:0.18280517 243:0.32299909 244:0.32299909 245:0 246:0 247:0.00024987038 248:0.0077072 249:0.014333448 250:0.015054836 251:0.039806578 252:0.32299909 253:0.024017787 254:0.34475639 255:0.42463493 256:0.42463493 257:0.42463493 258:0.00080143817 259:0 260:0 261:0.010932444 262:0.021928601 263:0.13899988 264:0.17456698 265:0.12538613 266:0.14896423 267:0 268:0 269:0 270:0.015980719 271:0.0085769659 272:0.077326871 273:0.20479605 274:0.11968044 275:0.42463493 276:0.00036429006 277:0 278:0 279:0.0055572726 280:0.0026309069 281:0.008893406 282:0.020455757 283:0.012440663 284:0.059096664 285:0 286:0 287:0 288:0.0012583184 289:0.49875313 290:0.49875313 291:0.49875313 292:0 293:0 294:0 295:0 296:0 297:0.49875313 298:0 299:0 300:0 301:0 302:0 303:0 304:0 305:0 306:0 307:0 308:0 309:0 310:0 311:0 312:0 313:0 314:0 315:0 316:0 317:0 318:0 319:0 320:0 321:0 322:0 323:0 324:0 325:0 326:0 327:0 328:0 329:0 330:0 331:0 332:0 333:0 334:0.047139097 335:0.093221284 336:0.15414253 337:0.28612199 338:0.52293414 339:0 340:0 341:0 342:0.00790752 343:0 344:0 345:0 346:0 347:0 348:0 349:0 350:0 351:0 352:0.010148934 353:0.15476102 354:0.35776144 355:0.42333013 356:0.52293414 357:0 358:0 359:0 360:0.0010954929 361:0.13948654 362:0.16487862 363:0.16114105 364:0.22661382 365:0.33612296 366:0.00060567609 367:0 368:0 369:0.025941862 370:0.25391233 371:0.25890377 372:0.23735696 373:0.20670037 374:0.33612296 375:0.00077872636 376:0 377:0 378:0.080996647 379:0.035547238 380:0.12568292 381:0.21001437 382:0.25794524 383:0.33612296 384:0 385:0 386:0 387:0.0082480349 388:0.048764523 389:0.10101337 390:0.13050817 391:0.15898812 392:0.33612296 393:0 394:0 395:0 396:0.017444922 397:0.36571205 398:0.36571205 399:0.36571205 400:0.14171988 401:0.36571205 402:0.00082062423 403:0 404:0 405:0.36571205 406:0.36561203 407:0.10910087 408:0.078871727 409:0 410:0.0066064782 411:0 412:0.017353106 413:0.025025267 414:0.33133784 415:0.059510969 416:0.055438194 417:0.038493287 418:0.0079915095 419:0.18884328 420:0 421:0 422:0 423:0.032604821 424:0.0021038395 425:0 426:0 427:0 428:0.0094046704 429:0 430:0 431:0 432:0.0021038395 433:0.41205332 434:0 435:0 436:0 437:0.0070889732 438:0 439:0.10405841 440:0.22994103 441:0.41205332 442:0.41205332 443:0 444:0 445:0 446:0.010161301 447:0 448:0.28810674 449:0.41205332 450:0.41205332 451:0.0014893614 452:0 453:0 454:0 455:0.0041423361 456:0 457:0 458:0 459:0.0014893614 460:0.0033036454 461:0 462:0 463:0 464:0.0063653006 465:0 466:0 467:0 468:0.0033036454 469:0.47673017 470:0 471:0 472:0 473:0.0037877457 474:0 475:0.10587139 476:0.27033406 477:0.47673017 478:0.47673017 479:0 480:0 481:0 482:0.002151265 483:0 484:0.0071782432 485:0.042317532 486:0.47673017 487:0.00043438587 488:0 489:0 490:0 491:0.00086177001 492:0 493:0 494:0 495:0.00043438587 496:4.8054608e-005 497:0 498:0 499:0 500:0 501:0 502:0 503:0 504:4.8054608e-005 505:0.0030323043 506:0 507:0 508:0 509:0.45811358 510:0.18467358 511:0.12434936 512:0.052646331 513:0.0041618315 514:0.00069976243 515:0 516:0 517:0 518:0.05977938 519:0.014670721 520:0.0076279393 521:0.0031463497 522:0.00069976243 523:0.0058124582 524:0 525:0 526:0 527:0.45811358 528:0.45811358 529:0.45811358 530:0.19593216 531:0.010707077 532:0.001611823 533:0 534:0 535:0 536:0.21043214 537:0.10060835 538:0.077854261 539:0.026848329 540:0.001611823 541:0 542:0 543:0 544:0 545:0 546:0 547:0 548:0 549:0 550:0 551:0 552:0 553:0 554:0 555:0 556:0 557:0 558:0 559:0.0088743875 560:0 561:0 562:0 563:0.017728258 564:0 565:0 566:0 567:0.0088743875 568:0.47893476 569:0.27790371 570:0.47893476 571:0 572:0.47893476 573:0 574:0 575:0 576:0.47893476 577:0 578:0 579:0 580:0 581:0 582:0 583:0 584:0 585:0 586:4.8559647e-005 587:0.021363638 588:0.055618927 589:0.051149737 590:0.48663494 591:0.034089524 592:0.015380576 593:0.0025957527 594:4.8559647e-005 595:0.17778526 596:0.019773461 597:0.039951045 598:0 599:0.013817263 600:0 601:0 602:0 603:0.13590893 604:0.44007215 605:0.023047872 606:0.058780309 607:0.015011971 608:0.48663494 609:0.20842159 610:0.25792345 611:0.035614703 612:0.39061007 613:0.00012019881 614:0.026949868 615:0.061250288 616:0.058872651 617:0.43720365 618:0.034745425 619:0.020340698 620:0.0028504231 621:0.00012019881 622:0.00043131324 623:0.016508663 624:0.031607181 625:0.032705463 626:0.43720365 627:0.015986456 628:0.01308266 629:0.0014647209 630:0.00043131324 631:0.096991085 632:0.0085988659 633:0.04644116 634:0.024626346 635:0.43720365 636:0.24141671 637:0.30261791 638:0.0371769 639:0.079794206 640:0.014970529 641:0.0039085755 642:0.025262967 643:0.018859824 644:0.43720365 645:0.13510594 646:0.17028174 647:0.017631246 648:0.0073581696 649:0.058223963 650:0 651:0 652:0 653:0.55830115 654:0 655:0 656:0 657:0.058223963 658:0.023152228 659:0 660:0 661:0 662:0.072491333 663:0 664:0 665:0 666:0.023152228 667:0.036587324 668:0 669:0 670:0 671:0.81509572 672:0 673:0 674:0 675:0.036587324 676:0 677:0 678:0 679:0 680:0 681:0 682:0 683:0 684:0 685:0.2270114 686:0 687:0 688:0 689:0.50951678 690:0 691:0 692:0 693:0.2270114 694:0.49942508 695:0 696:0 697:0 698:0 699:0 700:0 701:0 702:0.49942508 703:0 704:0 705:0 706:0 707:0 708:0 709:0 710:0 711:0 712:0 713:0 714:0 715:0 716:0 717:0 718:0 719:0 720:0 721:0.48738912 722:0 723:0 724:0 725:0 726:0 727:0 728:0 729:0.48738912 730:0 731:0 732:0 733:0 734:0 735:0 736:0 737:0 738:0 739:0 740:0 741:0 742:0 743:0 744:0 745:0 746:0 747:0 748:0 749:0 750:0 751:0 752:0 753:0 754:0 755:0 756:0 757:0.0063206013 758:0.036257353 759:0.14523336 760:0.14096129 761:0.34288916 762:0.34288916 763:0.33878911 764:0.10346111 765:0.0077233058 766:0.0015430991 767:0.0093756001 768:0.039378479 769:0.044356879 770:0.29578322 771:0.089182384 772:0.080849111 773:0.022563636 774:0.0015430991 775:0.0086280899 776:0.14876556 777:0.34288916 778:0.34288916 779:0.34288916 780:0.06836237 781:0.076942191 782:0.01580373 783:0.0061174924 784:0.0017521244 785:0.028003525 786:0.090416402 787:0.10563532 788:0.28383955 789:0.023201574 790:0.02057375 791:0.0039040586 792:0.0017521244 793:0.00065434712 794:0 795:0 796:0 797:0.0018596555 798:0 799:0 800:0 801:0.00065434712 802:0.13276905 803:0.045153718 804:0.18294714 805:0.10073715 806:0.53127617 807:0 808:0 809:0 810:0.052993678 811:0.0009164369 812:2.0929238e-005 813:6.2628016e-005 814:0 815:0.0015615574 816:0 817:0.00021700886 818:7.2520546e-005 819:0.0009164369 820:0.086353853 821:0.055755749 822:0.49370185 823:0.33043373 824:0.53127617 825:0 826:0 827:0 828:0.024306323 829:0.2275117 830:0.031319588 831:0.099821784 832:0.045268159 833:0.24178779 834:0 835:0 836:0 837:0.16979465 838:0.32915077 839:0.034928996 840:0.09794686 841:0.033503857 842:0.23647588 843:0.034463529 844:0.055572826 845:0.0065441448 846:0.32915077 847:0.16850121 848:0.032827787 849:0.20027684 850:0.13814613 851:0.32915077 852:0 853:0 854:0 855:0.12361016 856:0.32915077 857:0.031125678 858:0.11511084 859:0.065413304 860:0.32915077 861:0.0010384446 862:0.0014953894 863:0 864:0.32915077 865:0.32777676 866:0.055140138 867:0.21304756 868:0.098734558 869:0.32777676 870:0.20374101 871:0.29380417 872:0.031489473 873:0.32777676 874:0.11693034 875:0.025063699 876:0.12347311 877:0.075650059 878:0.32777676 879:0.12690213 880:0.15850621 881:0.014699045 882:0.068116166 883:0.32777676 884:0.042886775 885:0.12347311 886:0.047305655 887:0.15102738 888:0.0074284808 889:0.0070883241 890:0 891:0.32777676 892:0.10324602 893:0.01949399 894:0.07683894 895:0.036273517 896:0.1376449 897:0.0054353504 898:0.0032219656 899:0 900:0.065279439 901:0.0031564338 902:0 903:0 904:0 905:0.70460862 906:0 907:0 908:0 909:0.0031564338 910:0 911:0 912:0 913:0 914:0 915:0 916:0 917:0 918:0 919:0 920:0 921:0 922:0 923:0.70460862 924:0 925:0 926:0 927:0 928:0 929:0 930:0 931:0 932:0 933:0 934:0 935:0 936:0 937:0 938:0 939:0 940:0 941:0 942:0 943:0 944:0 945:0 946:0 947:0 948:0 949:0 950:0 951:0 952:0 953:0 954:0 955:0 956:0 957:0 958:0 959:0 960:0 961:0 962:0 963:0 964:0 965:0 966:0 967:0 968:0 969:0 970:0 971:0 972:0 973:0 974:0 975:0 976:0 977:0 978:0 979:0 980:0 981:0 982:0 983:0 984:0 985:0 986:0 987:0 988:0 989:0 990:0 991:0 992:0 993:0 994:0 995:0 996:0 997:0 998:0 999:0 1000:0 1001:0 1002:0 1003:0 1004:0 1005:0 1006:0 1007:0 1008:0 1009:0.012660543 1010:0.28044012 1011:0.37622017 1012:0.37622017 1013:0.37622017 1014:0.0021731083 1015:0.00023403157 1016:7.8209239e-005 1017:0.0084728086 1018:0.0042671594 1019:0.019930366 1020:0.053832855 1021:0.076500215 1022:0.15331046 1023:0.00014487386 1024:0.0010141367 1025:0.00033890671 1026:0.0042671594 1027:0.006631922 1028:0.28117058 1029:0.37622017 1030:0.31095192 1031:0.37622017 1032:0.0016901951 1033:0.00073470664 1034:0.0002455262 1035:0.0063527389 1036:0.005054797 1037:0.0022265082 1038:0.0058322372 1039:0.0084682964 1040:0.030976523 1041:0.00011267968 1042:0.0018042508 1043:0.00060294895 1044:0.005054797 1045:0.0013892141 1046:0.00035474202 1047:0.0010615207 1048:0.00029808475 1049:0.0086709093 1050:0.00032605338 1051:0.00037004749 1052:0.00012366338 1053:0.0013892141 1054:0.025665304 1055:0.01928301 1056:0.31955525 1057:0.31955525 1058:0.31955525 1059:0.021513188 1060:0.033075329 1061:0.044542778 1062:0.084022701 1063:0.0092743579 1064:0.010850316 1065:0.0099207563 1066:0.021961831 1067:0.046141256 1068:0.001412898 1069:0.00069865613 1070:0.00023347857 1071:0.0032580257 1072:0.31955525 1073:0.31955525 1074:0.31955525 1075:0.31955525 1076:0.31955525 1077:0.091847576 1078:0.097658016 1079:0.21249799 1080:0.31955525 1081:0.031054182 1082:0.018278571 1083:0.28367445 1084:0.28367445 1085:0.28367445 1086:0.017570473 1087:0.033655334 1088:0.03324727 1089:0.098621637 1090:0.034253955 1091:0.0068699163 1092:0.093384936 1093:0.091970176 1094:0.28367445 1095:0.0067626582 1096:0.015290431 1097:0.012889213 1098:0.062916256 1099:0.28367445 1100:0.17248061 1101:0.28367445 1102:0.28367445 1103:0.28367445 1104:0.11237644 1105:0.11374407 1106:0.16860893 1107:0.28367445 1108:0.12891865 1109:0.039975207 1110:0.079315349 1111:0.097477742 1112:0.28367445 1113:0.069935806 1114:0.060442101 1115:0.06700664 1116:0.1590233 1117:0.53995943 1118:0 1119:0 1120:0.00071742525 1121:0.16543171 1122:0 1123:0 1124:0 1125:0.53995943 1126:0.21442817 1127:0 1128:0 1129:0 1130:0 1131:0 1132:0 1133:0 1134:0.21442817 1135:0.015662853 1136:0 1137:0 1138:0.010761379 1139:0.53995943 1140:0 1141:0 1142:0 1143:0.015662853 1144:0.00065256108 1145:0 1146:0 1147:0 1148:0.0022032131 1149:0 1150:0 1151:0 1152:0.00065256108 1153:0 1154:0 1155:0 1156:0 1157:0 1158:0 1159:0 1160:0 1161:0 1162:0 1163:0 1164:0 1165:0 1166:0 1167:0 1168:0 1169:0 1170:0 1171:0 1172:0 1173:0 1174:0 1175:0 1176:0 1177:0 1178:0 1179:0 1180:0 1181:0 1182:0 1183:0 1184:0 1185:0 1186:0 1187:0 1188:0 1189:0 1190:0 1191:0 1192:0 1193:0 1194:0 1195:0 1196:0 1197:0 1198:0 1199:0 1200:0 1201:0 1202:0 1203:0 1204:0 1205:0 1206:0 1207:0 1208:0 1209:0 1210:0 1211:0 1212:0 1213:0 1214:0 1215:0 1216:0 1217:0 1218:0 1219:0 1220:0 1221:0 1222:0 1223:0 1224:0 1225:0 1226:0 1227:0 1228:0 1229:0 1230:0 1231:0 1232:0 1233:0 1234:0 1235:0 1236:0 1237:0 1238:0 1239:0 1240:0 1241:0 1242:0 1243:0 1244:0 1245:0 1246:0 1247:0 1248:0 1249:0 1250:0 1251:0 1252:0 1253:0 1254:0 1255:0 1256:0 1257:0 1258:0 1259:0 1260:0 1261:0.073023789 1262:0.19801666 1263:0.2960555 1264:0.21573365 1265:0.38645187 1266:0 1267:0.0045766355 1268:0.0015294331 1269:0.073023789 1270:0.0081267422 1271:0.0015849293 1272:0.0047427085 1273:0 1274:0.024643451 1275:0 1276:0.005578469 1277:0.0018642271 1278:0.0081267422 1279:0.38645187 1280:0.10451287 1281:0.20403281 1282:0.35281497 1283:0.38645187 1284:0.16398302 1285:0.010005259 1286:0.090359911 1287:0.38645187 1288:0.0068546711 1289:0.0027869632 1290:0.0083396463 1291:0 1292:0.038833633 1293:0 1294:0.0023121387 1295:0.00077267684 1296:0.0068546711 1297:0.0079026613 1298:0.014281138 1299:0.011822569 1300:0.043175053 1301:0.095006183 1302:0.015981549 1303:0.016664134 1304:0.0079815565 1305:0.0020089091 1306:0.28009418 1307:0.28009418 1308:0.2494202 1309:0.28009418 1310:0.28009418 1311:0.11745062 1312:0.27074689 1313:0.22182523 1314:0.21687365 1315:0.0041821352 1316:0.0066937413 1317:0.0059527936 1318:0.024344074 1319:0.082839705 1320:0.020117488 1321:0.030224239 1322:0.017067669 1323:0.0032110182 1324:0.077329248 1325:0.19343336 1326:0.14732052 1327:0.20288007 1328:0.28009418 1329:0.26901603 1330:0.28009418 1331:0.28009418 1332:0.052754201 1333:0.27353591 1334:0.27353591 1335:0.20453352 1336:0.2199574 1337:0.27353591 1338:0.12554909 1339:0.20307568 1340:0.20265654 1341:0.27353591 1342:0.18362574 1343:0.066280596 1344:0.046471708 1345:0.05956462 1346:0.23810598 1347:0.056235123 1348:0.032284178 1349:0.041585431 1350:0.10981801 1351:0.11106315 1352:0.15112258 1353:0.10751648 1354:0.12453794 1355:0.27353591 1356:0.24599294 1357:0.27353591 1358:0.27353591 1359:0.066154823 1360:0.04013183 1361:0.017296456 1362:0.0076430365 1363:0.01403186 1364:0.1869254 1365:0.038339321 1366:0.017320512 1367:0.016930901 1368:0.020596571 1369:0.081718259 1370:0 1371:0 1372:0.017592588 1373:0.92691499 1374:0 1375:0 1376:0 1377:0.081718259 1378:0.0041277874 1379:0 1380:0 1381:0 1382:0.016142098 1383:0 1384:0 1385:0 1386:0.0041277874 1387:0.052577898 1388:0 1389:0 1390:0 1391:0.33470938 1392:0 1393:0 1394:0 1395:0.052577898 1396:0.0020151567 1397:0 1398:0 1399:0 1400:0.0073373178 1401:0 1402:0 1403:0 1404:0.0020151567 1405:0 1406:0 1407:0 1408:0 1409:0 1410:0 1411:0 1412:0 1413:0 1414:0 1415:0 1416:0 1417:0 1418:0 1419:0 1420:0 1421:0 1422:0 1423:0 1424:0 1425:0 1426:0 1427:0 1428:0 1429:0 1430:0 1431:0 1432:0 1433:0 1434:0 1435:0 1436:0 1437:0 1438:0 1439:0 1440:0 1441:0 1442:0 1443:0 1444:0 1445:0 1446:0 1447:0 1448:0 1449:0 1450:0 1451:0 1452:0 1453:0 1454:0 1455:0 1456:0 1457:0 1458:0 1459:0 1460:0 1461:0 1462:0 1463:0 1464:0 1465:0 1466:0 1467:0 1468:0 1469:0 1470:0 1471:0 1472:0 1473:0 1474:0 1475:0 1476:0 1477:0 1478:0 1479:0 1480:0 1481:0 1482:0 1483:0 1484:0 1485:0 1486:0 1487:0 1488:0 1489:0 1490:0 1491:0 1492:0 1493:0 1494:0 1495:0 1496:0 1497:0 1498:0 1499:0 1500:0 1501:0 1502:0 1503:0 1504:0 1505:0 1506:0 1507:0 1508:0 1509:0 1510:0 1511:0 1512:0 1513:0.09959539 1514:0.14095975 1515:0.1719133 1516:0.13099247 1517:0.23842612 1518:0.03421152 1519:0.013423752 1520:0.023712277 1521:0.13689545 1522:0.1633153 1523:0.084944822 1524:0.072879322 1525:0 1526:0.0059537548 1527:0 1528:0.059038099 1529:0.042551678 1530:0.27405477 1531:0.095268823 1532:0.30099526 1533:0.30099526 1534:0.13400981 1535:0.30099526 1536:0.0042320481 1537:0.025173606 1538:0.016930846 1539:0.14683703 1540:0.30099526 1541:0.30099526 1542:0.30099526 1543:0.0050770738 1544:0.043960989 1545:0 1546:0.15154423 1547:0.12127835 1548:0.30099526 1549:0.14435153 1550:0.016683195 1551:0.019012319 1552:0.018257273 1553:0.038288288 1554:0.0018366289 1555:0.054163516 1556:0.046110857 1557:0.19479951 1558:0.094652385 1559:0.23863006 1560:0.25859815 1561:0.14932847 1562:0.28439248 1563:0.070099302 1564:0.1029966 1565:0.093451336 1566:0.066767834 1567:0.28439248 1568:0.038852606 1569:0.05037735 1570:0.032360125 1571:0.068752319 1572:0 1573:0.18010345 1574:0.17352702 1575:0.28439248 1576:0.28439248 1577:0.23349358 1578:0.28439248 1579:0.19552834 1580:0.28439248 1581:0 1582:0.0931428 1583:0.08445555 1584:0.28439248 1585:0.058989394 1586:0.33289626 1587:0.33289626 1588:0.27136481 1589:0.33289626 1590:0.17158133 1591:0.13588887 1592:0.12742728 1593:0.024286937 1594:0.002935864 1595:0.026586449 1596:0.023302997 1597:0.044371489 1598:0.28215334 1599:0.026894676 1600:0.008632374 1601:0.0072940737 1602:0.0024883035 1603:0.19543153 1604:0.33289626 1605:0.33289626 1606:0.23585038 1607:0.33289626 1608:0 1609:0 1610:0 1611:0.095174477 1612:0.0023645221 1613:0.020332702 1614:0.01594718 1615:0.02016886 1616:0.04743205 1617:0 1618:0 1619:0 1620:0.0002289166 1621:0.29147044 1622:0 1623:0 1624:0 1625:0.89106548 1626:0 1627:0 1628:0 1629:0.29147044 1630:0 1631:0 1632:0 1633:0 1634:0 1635:0 1636:0 1637:0 1638:0 1639:0.013273757 1640:0 1641:0 1642:0 1643:0.013592463 1644:0 1645:0 1646:0 1647:0.013273757 1648:0 1649:0 1650:0 1651:0 1652:0 1653:0 1654:0 1655:0 1656:0 1657:0 1658:0 1659:0 1660:0 1661:0 1662:0 1663:0 1664:0 1665:0 1666:0 1667:0 1668:0 1669:0 1670:0 1671:0 1672:0 1673:0 1674:0 1675:0 1676:0 1677:0 1678:0 1679:0 1680:0 1681:0 1682:0 1683:0 1684:0 1685:0 1686:0 1687:0 1688:0 1689:0 1690:0 1691:0 1692:0 1693:0 1694:0 1695:0 1696:0 1697:0 1698:0 1699:0 1700:0 1701:0 1702:0 1703:0 1704:0 1705:0 1706:0 1707:0 1708:0 1709:0 1710:0 1711:0 1712:0 1713:0 1714:0 1715:0 1716:0 1717:0 1718:0 1719:0 1720:0 1721:0 1722:0 1723:0 1724:0 1725:0 1726:0 1727:0 1728:0 1729:0 1730:0 1731:0 1732:0 1733:0 1734:0 1735:0 1736:0 1737:0 1738:0 1739:0 1740:0 1741:0 1742:0 1743:0 1744:0 1745:0 1746:0 1747:0 1748:0 1749:0 1750:0 1751:0 1752:0 1753:0 1754:0 1755:0 1756:0 1757:0 1758:0 1759:0 1760:0 1761:0 1762:0 1763:0 1764:0 
0.0109319906651476 1:0.043788884 2:0.08238744 3:0.067188032 4:0.10113022 5:0.28650245 6:0.09340851 7:0.18332493 8:0.13639919 9:0.056378081 10:0.28650245 11:1.6343145e-005 12:0.00032749222 13:0.044175722 14:0.28650245 15:0.12101508 16:0.28650245 17:0.25681755 18:0.28650245 19:0.14636616 20:0.032892872 21:0.094862312 22:0.068142734 23:0.22911741 24:0.08556278 25:0.085625589 26:0.10786881 27:0.089612141 28:0.28650245 29:0.0014799553 30:0.0024669492 31:0.11795589 32:0.28650245 33:0.12629446 34:0.12019003 35:0.055447813 36:0.28650245 37:0.28121886 38:5.4973102e-006 39:0.00027921508 40:0.042628642 41:0.12201404 42:0.05065297 43:0.11494016 44:0.055764575 45:0.28121886 46:0.28121886 47:0.049918614 48:0.033232514 49:0.10046481 50:0.2315672 51:0.041439343 52:0.0042674937 53:0.10716058 54:0.28121886 55:0.28121886 56:0.0022285269 57:0.00084783859 58:0.15094031 59:0.28121886 60:0.1521769 61:0.027425446 62:0.017159611 63:0.28121886 64:0.28121886 65:0.068909489 66:0.064125635 67:0.14818302 68:0.28121886 69:0.092983842 70:0.0064382516 71:0.061050989 72:0.28121886 73:0.27341044 74:0.15757881 75:0.094264254 76:0.2104363 77:0.27341044 78:0.042734113 79:0.052198708 80:0.078665629 81:0.27341044 82:0.27341044 83:0.11304617 84:0.087866157 85:0.13174243 86:0.27341044 87:0.039949223 88:0.094161823 89:0.014074954 90:0.20806262 91:0.19055785 92:0.20592158 93:0.16505156 94:0.20419803 95:0.27341044 96:0.041471541 97:0.015869452 98:0.047688589 99:0.12611796 100:0.23445143 101:0.19746308 102:0.097422756 103:0.1210444 104:0.27341044 105:0.014217086 106:0.01033768 107:0.0056788959 108:0.084846772 109:0.17670992 110:0.037011869 111:0.08351142 112:0.089531563 113:0.40729842 114:0.049827244 115:0.10085778 116:0.011065718 117:0.10824177 118:0.0042967331 119:0 120:0 121:0 122:0.014973338 123:0 124:0 125:0 126:0.0042967331 127:0.40729842 128:0.23078758 129:0.055853445 130:0.045530837 131:0.14512782 132:0.0039556203 133:0.0067238524 134:0.00073771452 135:0.40729842 136:0.40729842 137:0.0015495826 138:0.0017823779 139:0 140:0.010800187 141:0.00087948644 142:0.018615667 143:0.11866493 144:0.40729842 145:0.0064996979 146:0 147:0 148:0 149:0.02550653 150:0 151:0 152:0 153:0.0064996979 154:0.00029635688 155:0 156:0 157:0 158:0.0018799504 159:0 160:0 161:0 162:0.00029635688 163:0.48790404 164:0.00067952677 165:0.0020334031 166:0 167:0.083476424 168:0.012223317 169:0.23045747 170:0.48790404 171:0.48790404 172:0.069761753 173:0 174:0 175:0 176:0.085574105 177:0.0095070256 178:0.16516007 179:0.32152238 180:0.27761465 181:0 182:0 183:0 184:0 185:0 186:0 187:0 188:0 189:0 190:0 191:0 192:0 193:0 194:0 195:0 196:0 197:0 198:0 199:0.2212349 200:0 201:0 202:0 203:0.91390342 204:0 205:0 206:0 207:0.2212349 208:0.10056132 209:0 210:0 211:0 212:0.19377126 213:0 214:0 215:0 216:0.10056132 217:0 218:0 219:0 220:0 221:0 222:0 223:0 224:0 225:0 226:0 227:0 228:0 229:0 230:0 231:0 232:0 233:0 234:0 235:0 236:0 237:0 238:0 239:0 240:0 241:0 242:0 243:0 244:0 245:0 246:0 247:0 248:0 249:0 250:0 251:0 252:0 253:0.26178703 254:0.029872777 255:0.10619782 256:0.057270713 257:0.4735752 258:0.17891976 259:0.11719404 260:0.2452355 261:0.22078878 262:0.16239826 263:0.004211897 264:0.0063846214 265:0.093546912 266:0.3159638 267:0.15518148 268:0.0010687991 269:0.0040984442 270:0.19693992 271:0.052120242 272:0.00026748059 273:0.00080040272 274:0 275:0.4735752 276:0.21044199 277:0.10367427 278:0.2003414 279:0.10421098 280:0.010418283 281:0.0014518719 282:0.003906691 283:0 284:0.033928838 285:0 286:0 287:0.00024941796 288:0.013408091 289:0.33129752 290:0.0079213846 291:0.0017462251 292:0.20803624 293:0.33129752 294:0.22846708 295:0.00025155197 296:0.0047800844 297:0.33129752 298:0.2322773 299:0.1354783 300:0.1665276 301:0.24536808 302:0.33129752 303:0.18398391 304:0.11550125 305:0.17542259 306:0.20027752 307:0.01842298 308:0.001169054 309:0.0020042991 310:0 311:0.0061583295 312:0 313:0 314:0.00031306798 315:0.019339964 316:0.070941813 317:0.005546696 318:0.0070195496 319:0.011220789 320:0.33129752 321:0.074867845 322:0.11470389 323:0.19516477 324:0.10568216 325:0.10545063 326:0.27140197 327:0.16941378 328:0.096876338 329:0.2900863 330:0.063257083 331:0.091065578 332:0.14650917 333:0.10430791 334:0.2900863 335:0.2900863 336:0.12496798 337:0.042812586 338:0.18612854 339:0.015165377 340:0.032532085 341:0.05625727 342:0.23358376 343:0.1334344 344:0.16173498 345:0.05566268 346:0.011839605 347:0.17797923 348:0.045985211 349:0.095453084 350:0.15905724 351:0.16402629 352:0.2900863 353:0.2900863 354:0.21673498 355:0.18239808 356:0.15340117 357:0.010611973 358:0.036245681 359:0.05901539 360:0.21620904 361:0.31794932 362:0.17746358 363:0.017743705 364:0.0021360382 365:0.00152583 366:6.3264037e-005 367:0 368:0 369:0.31549671 370:0.31794932 371:0.050411437 372:0.010725169 373:0.0026181836 374:0.0059492756 375:0.011233617 376:0.014859681 377:0.066891469 378:0.31794932 379:0.31794932 380:0.31794932 381:0.12918074 382:0.12838106 383:0.073610596 384:0 385:0 386:0 387:0.21308549 388:0.31794932 389:0.24685287 390:0.050850797 391:0.021494936 392:0.014957841 393:0.014115207 394:0.012162354 395:0.041941553 396:0.31794932 397:0.34733745 398:0.059654322 399:0.045656193 400:0.024612943 401:0.15515226 402:0.086038917 403:0.12822258 404:0.33214933 405:0.34733745 406:0.062645957 407:0.018497877 408:0.033242021 409:0.019143397 410:0.17183238 411:0.054143794 412:0.090010233 413:0.12841518 414:0.11652998 415:0.34733745 416:0.17134558 417:0.1056486 418:0.054148465 419:0.20490399 420:0.1073605 421:0.10337565 422:0.20769413 423:0.34733745 424:0.14994268 425:0.040695332 426:0.073132455 427:0.042115476 428:0.22936785 429:0.067077145 430:0.071665674 431:0.079720229 432:0.14983641 433:0.051987834 434:0 435:0 436:0 437:0.70118451 438:0 439:0 440:0 441:0.051987834 442:0.023630833 443:0 444:0 445:0 446:0.050576475 447:0 448:0 449:0 450:0.023630833 451:0.013875129 452:0 453:0 454:0 455:0.70118451 456:0 457:0 458:0 459:0.013875129 460:0.0063068774 461:0 462:0 463:0 464:0.011671494 465:0 466:0 467:0 468:0.0063068774 469:0 470:0 471:0 472:0 473:0 474:0 475:0 476:0 477:0 478:0 479:0 480:0 481:0 482:0 483:0 484:0 485:0 486:0 487:0 488:0 489:0 490:0 491:0 492:0 493:0 494:0 495:0 496:0 497:0 498:0 499:0 500:0 501:0 502:0 503:0 504:0 505:0.0011052239 506:7.6996084e-006 507:2.3040075e-005 508:0 509:0.70108324 510:0.031369135 511:0.011069867 512:0.011165942 513:0.0041903094 514:0.00095670391 515:0.00028013572 516:0.00083827152 517:0 518:0.026778283 519:0 520:0 521:0 522:0.00095670391 523:0.0014162075 524:0.022357399 525:0.027569776 526:0.074902445 527:0.70108324 528:0.0018774882 529:0 530:0 531:0.0014162075 532:0.0030658389 533:0 534:0 535:4.0936055e-005 536:0.03315914 537:0.00012516587 538:0 539:0 540:0.0030658389 541:0.010096212 542:0.0022773254 543:0.0068146181 544:0 545:0.0140382 546:0 547:0 548:0 549:0.010096212 550:0.16443099 551:0.014009137 552:0.023911035 553:0 554:0.068388186 555:0 556:0.096349843 557:0.22863467 558:0.2204404 559:0.02864212 560:0 561:0 562:0 563:0.03968934 564:0 565:0 566:0 567:0.02864212 568:0.28326023 569:0.34427258 570:0.34427258 571:0.34427258 572:0.34427258 573:0.33105904 574:0.3255834 575:0.0092908498 576:0.28326023 577:0.027196635 578:0.05317273 579:0.052280467 580:0.064755112 581:0.037485443 582:0 583:0.0079987571 584:0.014636052 585:0.032293212 586:0.098026916 587:0.30097377 588:0.30097377 589:0.30097377 590:0.23824596 591:0 592:0.003549959 593:0.0049503511 594:0.0479245 595:0.095990159 596:0.26072779 597:0.30097377 598:0.1705219 599:0.10711892 600:0.028338846 601:0.046856336 602:0.010949844 603:0.054954756 604:0.30097377 605:0.30097377 606:0.30097377 607:0.30097377 608:0.20396444 609:0.012881295 610:0.03773272 611:0.022224795 612:0.1510563 613:0.23128149 614:0.266817 615:0.25284708 616:0.266817 617:0.19959924 618:0 619:0.0014039396 620:0.0017537754 621:0.083851732 622:0.266817 623:0.17011064 624:0.040541533 625:0.029325338 626:0.024871051 627:0.002871233 628:0.0034115755 629:0.0033514199 630:0.17835154 631:0.266817 632:0.266817 633:0.266817 634:0.20062411 635:0.14636669 636:0.037892193 637:0.048772346 638:0.053368412 639:0.266817 640:0.23247072 641:0.16775428 642:0.067144416 643:0.052700728 644:0.15404959 645:0.083362825 646:0.081325211 647:0.078299515 648:0.26375034 649:0.40578204 650:0.31550702 651:0.15909623 652:0.076128662 653:0.19185504 654:0.087292179 655:0.014052625 656:0.0061452412 657:0.40578204 658:0.28129989 659:0.057214562 660:0.10281871 661:0.059211183 662:0.20816348 663:0.053887323 664:0.0035781525 665:0 666:0.2328631 667:0.092033535 668:0.11482748 669:0.067644924 670:0.09491612 671:0.40578204 672:0.16681623 673:0.13518474 674:0.12619703 675:0.18008395 676:0 677:0 678:0 679:0 680:0 681:0 682:0 683:0 684:0 685:0 686:0 687:0 688:0 689:0.99502486 690:0 691:0 692:0 693:0 694:0 695:0 696:0 697:0 698:0 699:0 700:0 701:0 702:0 703:0 704:0 705:0 706:0 707:0 708:0 709:0 710:0 711:0 712:0 713:0 714:0 715:0 716:0 717:0 718:0 719:0 720:0 721:0 722:0 723:0 724:0 725:0 726:0 727:0 728:0 729:0 730:0 731:0 732:0 733:0 734:0 735:0 736:0 737:0 738:0 739:0 740:0 741:0 742:0 743:0 744:0 745:0 746:0 747:0 748:0 749:0 750:0 751:0 752:0 753:0 754:0 755:0 756:0 757:0.028169729 758:0.16439797 759:0.2438705 760:0.44181281 761:0.47737232 762:0.0044968394 763:0 764:0 765:0.028169729 766:0.0053635314 767:0 768:0 769:0.00026652048 770:0.034817196 771:0.00029978927 772:0 773:0 774:0.0053635314 775:0.11102693 776:0.13752764 777:0.26470867 778:0.37554318 779:0.47737232 780:0.0010377322 781:0 782:0 783:0.11102693 784:0.0040979576 785:0 786:0 787:0.00020729372 788:0.013488451 789:6.9182148e-005 790:0 791:0 792:0.0040979576 793:0.010208916 794:0 795:0 796:0 797:0.015997924 798:0 799:0 800:0 801:0.010208916 802:0.32088214 803:0.23394103 804:0.15104882 805:0.16641323 806:0.38821033 807:0.15906242 808:0.15643157 809:0.0044639315 810:0.31398985 811:0.0078681791 812:0 813:0 814:0 815:0.014747712 816:0 817:0 818:0 819:0.0078681791 820:0.38821033 821:0.18101969 822:0.0058998987 823:0.021169279 824:0.38821033 825:0.036706708 826:0.03609959 827:0.001030138 828:0.38821033 829:0.17949542 830:0.22889347 831:0.17810416 832:0.054818809 833:0.093119942 834:0.032424897 835:0.053204335 836:0.0090172421 837:0.1202834 838:0.29170337 839:0.29170337 840:0.29170337 841:0.070343561 842:0.052034214 843:0.01473859 844:0.04227563 845:0.019470397 846:0.29170337 847:0.25838661 848:0.20048098 849:0.10317994 850:0.0029968247 851:0.14185064 852:0.0074826679 853:0.012174715 854:0.002613564 855:0.21954699 856:0.29170337 857:0.29170337 858:0.23924382 859:0.0046181581 860:0.037150022 861:0.0034012129 862:0.0095288539 863:0.0091431066 864:0.29170337 865:0.28374326 866:0.28374326 867:0.23491524 868:0.048483748 869:0.045974188 870:0.023717128 871:0.025340769 872:0.029291496 873:0.28374326 874:0.26344764 875:0.22320077 876:0.11195324 877:0.054610383 878:0.10785098 879:0.062723875 880:0.05971865 881:0.054736175 882:0.24505658 883:0.28374326 884:0.23721385 885:0.15132245 886:0.014823582 887:0.016448343 888:0.0015811418 889:0.0011564014 890:0.0085591916 891:0.28374326 892:0.28374326 893:0.0990071 894:0.061001167 895:0.015699839 896:0.12870616 897:0.077220224 898:0.16067584 899:0.11449596 900:0.28374326 901:0.19948773 902:0.072181486 903:0.037544966 904:0.04673025 905:0.15334545 906:0.10594358 907:0.12949744 908:0.084864482 909:0.21144308 910:0.0035374034 911:0 912:0 913:0 914:0.0011283628 915:0.0083600022 916:0.013210775 917:0.0040221354 918:0.0035374034 919:0.33862561 920:0.025556833 921:0.011076309 922:0.010783903 923:0.33862561 924:0.33862561 925:0.33862561 926:0.33862561 927:0.33862561 928:0.010612419 929:0 930:0 931:0 932:0.33862561 933:0.097393081 934:0.16442683 935:0.062757328 936:0.013282282 937:0 938:0 939:0 940:0 941:0 942:0 943:0 944:0 945:0 946:0 947:0 948:0 949:0 950:0 951:0 952:0 953:0 954:0 955:0.31138593 956:0 957:0 958:0 959:0.54222804 960:0 961:0 962:0 963:0.31138593 964:0.31260458 965:0 966:0 967:0 968:0.55265027 969:0 970:0 971:0 972:0.31260458 973:0 974:0 975:0 976:0 977:0 978:0 979:0 980:0 981:0 982:0 983:0 984:0 985:0 986:0 987:0 988:0 989:0 990:0 991:0.31090075 992:0 993:0 994:0 995:0.83025777 996:0 997:0 998:0 999:0.31090075 1000:0 1001:0 1002:0 1003:0 1004:0 1005:0 1006:0 1007:0 1008:0 1009:0.22776912 1010:0.019834766 1011:0.13567926 1012:0.15801738 1013:0.3553797 1014:0 1015:0 1016:0.0096044652 1017:0.23579524 1018:0.01331089 1019:0 1020:0 1021:0 1022:0.025636608 1023:0 1024:0 1025:0 1026:0.01331089 1027:0.3553797 1028:0 1029:0 1030:0 1031:0.3553797 1032:0.3553797 1033:0.28365153 1034:0.3553797 1035:0.3553797 1036:0.024966286 1037:0 1038:0 1039:0 1040:0.046178211 1041:0 1042:0 1043:0.013822207 1044:0.054058217 1045:0.020855188 1046:0 1047:0 1048:0 1049:0.040736925 1050:0 1051:0 1052:0 1053:0.020855188 1054:0.56590033 1055:0.16340581 1056:0 1057:0.015923206 1058:0.56590033 1059:0 1060:0 1061:0 1062:0.56590033 1063:0.019594738 1064:0 1065:0 1066:0 1067:0.057711244 1068:0 1069:0 1070:0 1071:0.019594738 1072:0.0020882231 1073:0 1074:0 1075:0 1076:0.0052830055 1077:0 1078:0 1079:0 1080:0.0020882231 1081:0.34421602 1082:0.27579042 1083:0.15635441 1084:0.0017135746 1085:0.29338235 1086:0 1087:0.00029917355 1088:0.0025669553 1089:0.34421602 1090:0.34421602 1091:0.34421602 1092:0.32488739 1093:0.00011423831 1094:0.071788616 1095:0 1096:0.0022272889 1097:0.011434555 1098:0.34421602 1099:0.00032469287 1100:0 1101:0 1102:0 1103:0.0029122713 1104:0 1105:0.00057839282 1106:0.00019328915 1107:0.00032469287 1108:0.17949836 1109:0 1110:0 1111:0 1112:0.20553076 1113:0 1114:0.0037032024 1115:0.0012375468 1116:0.17949836 1117:0.29682651 1118:0.047768805 1119:0.02743499 1120:0.0035189171 1121:0.045458976 1122:0 1123:0.00036278905 1124:0.0046057208 1125:0.27930519 1126:0.29682651 1127:0.0059171552 1128:0.054569338 1129:0.031974383 1130:0.29682651 1131:0.085762814 1132:0.19674145 1133:0.10986086 1134:0.29682651 1135:0.24069527 1136:0.002328095 1137:0 1138:0.0077416175 1139:0.16766699 1140:0 1141:0.0044248118 1142:0.0059465943 1143:0.26624113 1144:0.29682651 1145:0.15222695 1146:0.17394474 1147:0.083737865 1148:0.29682651 1149:0.052362546 1150:0.11219061 1151:0.046447791 1152:0.29682651 1153:0.16782358 1154:0.0036282758 1155:0.088462651 1156:0.055933967 1157:0.32292458 1158:0.14335755 1159:0.28578135 1160:0.12213092 1161:0.16724688 1162:0.0055639995 1163:0.00041697914 1164:0.020355355 1165:0.022286437 1166:0.32292458 1167:0.041589636 1168:0.058614399 1169:0.018543122 1170:0.0045409426 1171:0.32292458 1172:0.16707654 1173:0.28416437 1174:0.15127976 1175:0.32292458 1176:0.10986827 1177:0.15482299 1178:0.032786705 1179:0.32292458 1180:0.012413375 1181:0.020615656 1182:0.066835679 1183:0.058816936 1184:0.32292458 1185:0.040873516 1186:0.032233447 1187:0.0033904286 1188:0.022030149 1189:0.23243661 1190:0 1191:0 1192:0 1193:0.45502171 1194:0 1195:0 1196:0 1197:0.23243661 1198:0.21899356 1199:0 1200:0 1201:0 1202:0.4491145 1203:0 1204:0 1205:0 1206:0.21899356 1207:0.22797866 1208:0 1209:0 1210:0 1211:0.45812729 1212:0 1213:0 1214:0 1215:0.22797866 1216:0.10691112 1217:0 1218:0 1219:0 1220:0.21411178 1221:0 1222:0 1223:0 1224:0.10691112 1225:0.26110813 1226:0 1227:0 1228:0 1229:0.80764204 1230:0 1231:0 1232:0 1233:0.26110813 1234:0 1235:0 1236:0 1237:0 1238:0 1239:0 1240:0 1241:0 1242:0 1243:0.12747115 1244:0 1245:0 1246:0 1247:0.36710998 1248:0 1249:0 1250:0 1251:0.12747115 1252:0 1253:0 1254:0 1255:0 1256:0 1257:0 1258:0 1259:0 1260:0 1261:0.039071888 1262:0 1263:0 1264:0 1265:0.079216257 1266:0.045340646 1267:0.15160431 1268:0.36663184 1269:0.21449015 1270:0.014126496 1271:0 1272:0 1273:0 1274:0.0024379538 1275:0 1276:0.060455691 1277:0.23196721 1278:0.091402285 1279:0.04287171 1280:0 1281:0 1282:0 1283:0.013655361 1284:0.011234627 1285:0.25678235 1286:0.36663184 1287:0.34362289 1288:0.1045412 1289:0 1290:0 1291:0 1292:0.00053947896 1293:0 1294:0.34160924 1295:0.36663184 1296:0.36663184 1297:0.013448129 1298:0 1299:0 1300:0 1301:0.0034885656 1302:0 1303:0.019739842 1304:0.059143323 1305:0.038461994 1306:0.0025145374 1307:0 1308:0 1309:0 1310:0.00015887158 1311:0 1312:0 1313:0 1314:0.0035933726 1315:0.24030706 1316:0 1317:0 1318:0 1319:0.0013350971 1320:0 1321:0.31461757 1322:0.43206379 1323:0.43206379 1324:0.25708944 1325:0 1326:0 1327:0 1328:0.0015559952 1329:0 1330:0.14337845 1331:0.43206379 1332:0.43206379 1333:5.3111769e-005 1334:0 1335:0 1336:0 1337:0.0076184841 1338:0 1339:0.00016313687 1340:5.4517601e-005 1341:5.3111769e-005 1342:0.32411227 1343:0 1344:0 1345:0 1346:0.32411227 1347:0 1348:0.00092859205 1349:0.00031031968 1350:0.32411227 1351:0.32411227 1352:0 1353:0 1354:0 1355:0.0079994341 1356:0 1357:0.18968695 1358:0.32411227 1359:0.32411227 1360:0.32411227 1361:0 1362:0 1363:0 1364:0.32411227 1365:0 1366:0.067120627 1367:0.10350535 1368:0.32411227 1369:0.297052 1370:0.0029796127 1371:0 1372:0.0014187576 1373:0.1949103 1374:0.00014247496 1375:0.01350235 1376:0.020056039 1377:0.297052 1378:0.297052 1379:0.18097657 1380:0.11300988 1381:0.030804509 1382:0.20365332 1383:0.019390652 1384:0.1313428 1385:0.22257097 1386:0.297052 1387:0.20617683 1388:0.00068760291 1389:0 1390:0.00033730944 1391:0.15725504 1392:0.00061739149 1393:0.010442996 1394:0.015579482 1395:0.22800776 1396:0.297052 1397:0.050930709 1398:0.022304071 1399:0.011647203 1400:0.297052 1401:0.025603143 1402:0.090070754 1403:0.23255423 1404:0.297052 1405:0.24910465 1406:0.19116315 1407:0.17227095 1408:0.066758431 1409:0.24910465 1410:0.058200002 1411:0.1347623 1412:0.24910465 1413:0.24910465 1414:0.022148132 1415:0.024747148 1416:0.041652761 1417:0.031479117 1418:0.14383981 1419:0.054228023 1420:0.053247623 1421:0.17118213 1422:0.083549149 1423:0.24910465 1424:0.13506743 1425:0.046280671 1426:0.11222475 1427:0.24225613 1428:0.18326706 1429:0.15367803 1430:0.24910465 1431:0.24910465 1432:0.093861587 1433:0.10065326 1434:0.025214996 1435:0.16069208 1436:0.24910465 1437:0.22967045 1438:0.13665047 1439:0.24910465 1440:0.12056726 1441:0.026147118 1442:0 1443:0.00059457292 1444:0.017168596 1445:0.19859304 1446:0.1350662 1447:0.076679312 1448:0.11563121 1449:0.061496392 1450:0 1451:0 1452:0 1453:0 1454:0.00043162325 1455:0 1456:0 1457:0 1458:0 1459:0.25959462 1460:0.17130993 1461:0.039678968 1462:0.34038484 1463:0.34038484 1464:0.34038484 1465:0.31467521 1466:0.3222459 1467:0.34038484 1468:0.27408728 1469:0 1470:0 1471:0 1472:0.0061039007 1473:0 1474:0 1475:0 1476:0.27408728 1477:0 1478:0 1479:0 1480:0 1481:0 1482:0 1483:0 1484:0 1485:0 1486:0 1487:0 1488:0 1489:0 1490:0 1491:0 1492:0 1493:0 1494:0 1495:0.6437906 1496:0 1497:0 1498:0 1499:0.042415101 1500:0 1501:0 1502:0 1503:0.6437906 1504:0.28531364 1505:0 1506:0 1507:0 1508:0.0057582376 1509:0 1510:0 1511:0 1512:0.28531364 1513:0.043485183 1514:0 1515:0 1516:0 1517:8.6899316e-005 1518:0 1519:0.18380055 1520:0.45101592 1521:0.25445351 1522:0.26217848 1523:0 1524:0 1525:0 1526:0.0034471897 1527:0 1528:0.45101592 1529:0.45101592 1530:0.45101592 1531:0.00058253709 1532:0 1533:0 1534:0 1535:6.7588357e-005 1536:0 1537:0 1538:0.0014416237 1539:0.0017323442 1540:0.036744699 1541:0 1542:0 1543:0 1544:0.0026811475 1545:0 1546:0.0085655916 1547:0.0710482 1548:0.078612782 1549:0.15940313 1550:0 1551:0 1552:0 1553:0.0018977908 1554:0 1555:0.15993327 1556:0.36023042 1557:0.36023042 1558:0.32319558 1559:0 1560:0 1561:0 1562:0.0012631016 1563:0 1564:0.18604407 1565:0.36023042 1566:0.36023042 1567:0.037870441 1568:0 1569:0 1570:0 1571:0.0013786291 1572:0 1573:0.020079207 1574:0.11247979 1575:0.14359654 1576:0.15864882 1577:0 1578:0 1579:0 1580:0.0003917451 1581:0 1582:0.082801834 1583:0.30062225 1584:0.36023042 1585:0.20806853 1586:0 1587:0 1588:0 1589:0.0014575105 1590:0 1591:0.18481626 1592:0.32040185 1593:0.32040185 1594:0.077897958 1595:0 1596:0 1597:0 1598:0.0016030471 1599:0 1600:0.13479905 1601:0.32040185 1602:0.29485133 1603:0.1214036 1604:0 1605:0 1606:0 1607:0.00030897447 1608:0 1609:0.15510713 1610:0.32040185 1611:0.32040185 1612:0.1425743 1613:0 1614:0 1615:0 1616:0.00056648353 1617:0 1618:0.17447598 1619:0.32040185 1620:0.32040185 1621:0.090192944 1622:3.9479168e-005 1623:0.00011813634 1624:0.00016074502 1625:0.041434791 1626:0.00029421831 1627:0.03584994 1628:0.21201095 1629:0.22527361 1630:0.17494693 1631:0.01326066 1632:0.0076325266 1633:0.012188507 1634:0.16587779 1635:0.052428331 1636:0.018957017 1637:0.093040347 1638:0.20981352 1639:0.32084975 1640:5.670917e-005 1641:0.00016969496 1642:0 1643:0.00095814874 1644:0 1645:0.15272406 1646:0.3499051 1647:0.3499051 1648:0.3499051 1649:0.0011874918 1650:0.001653208 1651:0.00097709952 1652:0.008916839 1653:0.011949473 1654:0.19160885 1655:0.3499051 1656:0.3499051 1657:0.11442489 1658:0.076929539 1659:0.017320728 1660:0.069688722 1661:0.12348758 1662:0.20314208 1663:0.097375594 1664:0.19056697 1665:0.12428093 1666:0.20195872 1667:0.07988178 1668:0.01507607 1669:0.10285591 1670:0.14928856 1671:0.22305574 1672:0.17820558 1673:0.28943005 1674:0.25266495 1675:0.28943005 1676:0.0050330278 1677:0.0014405956 1678:0.002370995 1679:0.011894274 1680:0.068116248 1681:0.11340929 1682:0.28586787 1683:0.28943005 1684:0.28943005 1685:0.005294682 1686:0.0013017994 1687:0.0033853145 1688:0.014072719 1689:0.082838461 1690:0.14300936 1691:0.28943005 1692:0.28943005 1693:0.30664927 1694:0.0094164601 1695:0.0020478379 1696:0.019615108 1697:0.041541636 1698:0.030628525 1699:0.039863206 1700:0.083930135 1701:0.33450237 1702:0.33493373 1703:0 1704:0 1705:0 1706:0.00092043582 1707:0 1708:0.00024929683 1709:0.025939649 1710:0.33493373 1711:0.33493373 1712:0.00071931852 1713:0.0003907099 1714:0.00073658751 1715:0.006490353 1716:0.012335997 1717:0.036585405 1718:0.27523369 1719:0.33493373 1720:0.33493373 1721:0 1722:0 1723:0 1724:0.0083002495 1725:0 1726:0.010705682 1727:0.16650751 1728:0.33493373 1729:0.26732376 1730:0 1731:0 1732:0 1733:0.00066876272 1734:1.8807094e-005 1735:0.00097561214 1736:0.11358687 1737:0.31557679 1738:0.14101161 1739:0 1740:0 1741:0 1742:0.0091173742 1743:0.012497687 1744:0.020552156 1745:0.18605642 1746:0.30402705 1747:0.31557679 1748:0 1749:0 1750:0 1751:0.03140923 1752:0.00028210637 1753:0.0084750541 1754:0.2549518 1755:0.31557679 1756:0.31557679 1757:0 1758:0 1759:0 1760:0.21149218 1761:0.20373966 1762:0.1227026 1763:0.31557679 1764:0.31557679 
